/*
 * Copyright (c) 2024 EdgeImpulse Inc.
 *
 * Generated by Edge Impulse and licensed under the applicable Edge Impulse
 * Terms of Service. Community and Professional Terms of Service
 * (https://docs.edgeimpulse.com/page/terms-of-service) or Enterprise Terms of
 * Service (https://docs.edgeimpulse.com/page/enterprise-terms-of-service),
 * according to your product plan subscription (the “License”).
 *
 * This software, documentation and other associated files (collectively referred
 * to as the “Software”) is a single SDK variation generated by the Edge Impulse
 * platform and requires an active paid Edge Impulse subscription to use this
 * Software for any purpose.
 *
 * You may NOT use this Software unless you have an active Edge Impulse subscription
 * that meets the eligibility requirements for the applicable License, subject to
 * your full and continued compliance with the terms and conditions of the License,
 * including without limitation any usage restrictions under the applicable License.
 *
 * If you do not have an active Edge Impulse product plan subscription, or if use
 * of this Software exceeds the usage limitations of your Edge Impulse product plan
 * subscription, you are not permitted to use this Software and must immediately
 * delete and erase all copies of this Software within your control or possession.
 * Edge Impulse reserves all rights and remedies available to enforce its rights.
 *
 * Unless required by applicable law or agreed to in writing, the Software is
 * distributed on an "AS IS" BASIS, WITHOUT WARRANTIES OR CONDITIONS OF ANY KIND,
 * either express or implied. See the License for the specific language governing
 * permissions, disclaimers and limitations under the License.
 */
// Generated on: 24.09.2024 08:43:20

#include <stdio.h>
#include <stdlib.h>
#include "edge-impulse-sdk/tensorflow/lite/c/builtin_op_data.h"
#include "edge-impulse-sdk/tensorflow/lite/c/common.h"
#include "edge-impulse-sdk/tensorflow/lite/micro/micro_mutable_op_resolver.h"
#include "edge-impulse-sdk/porting/ei_classifier_porting.h"

#if EI_CLASSIFIER_PRINT_STATE
#if defined(__cplusplus) && EI_C_LINKAGE == 1
extern "C" {
    extern void ei_printf(const char *format, ...);
}
#else
extern void ei_printf(const char *format, ...);
#endif
#endif

#if defined (__GNUC__)  /* GNU compiler */
#define ALIGN(X) __attribute__((aligned(X)))
#define DEFINE_SECTION(x) __attribute__((section(x)))
#elif defined (_MSC_VER)
#define ALIGN(X) __declspec(align(X))
#elif defined (__TASKING__) /* TASKING Compiler */
#define ALIGN(X) __align(X)
#define DEFINE_SECTION(x) __attribute__(section(x)))
#elif defined (__ARMCC_VERSION) /* Arm Compiler */
#define ALIGN(X) __ALIGNED(x)
#define DEFINE_SECTION(x) __attribute__((section(x)))
#elif defined (__ICCARM__) /* IAR Compiler */
#define ALIGN(x) __attribute__((aligned(x)))
#define DEFINE_SECTION(x) __attribute__((section(x)))
#elif defined (__clang__) /* LLVM/Clang Compiler */
#define ALIGN(X) __ALIGNED(x)
#define DEFINE_SECTION(x) __attribute__((section(x)))
#endif

#ifndef EI_MAX_SCRATCH_BUFFER_COUNT
#ifndef CONFIG_IDF_TARGET_ESP32S3
#define EI_MAX_SCRATCH_BUFFER_COUNT 10
#else
#define EI_MAX_SCRATCH_BUFFER_COUNT 20
#endif // CONFIG_IDF_TARGET_ESP32S3
#endif // EI_MAX_SCRATCH_BUFFER_COUNT

#ifndef EI_MAX_OVERFLOW_BUFFER_COUNT
#define EI_MAX_OVERFLOW_BUFFER_COUNT 10
#endif // EI_MAX_OVERFLOW_BUFFER_COUNT

using namespace tflite;
using namespace tflite::ops;
using namespace tflite::ops::micro;

namespace {

#if defined(EI_CLASSIFIER_ALLOCATION_STATIC_HIMAX) || defined(EI_CLASSIFIER_ALLOCATION_STATIC_HIMAX_GNU)
constexpr int kTensorArenaSize = 194480;
#else
constexpr int kTensorArenaSize = 193456;
#endif

#if defined(EI_CLASSIFIER_ALLOCATION_STATIC)
#if defined (EI_TENSOR_ARENA_LOCATION)
#define STRINGIZE(x) #x
#define STRINGIZE_VALUE_OF(x) STRINGIZE(x)
uint8_t tensor_arena[kTensorArenaSize] ALIGN(16) DEFINE_SECTION(STRINGIZE_VALUE_OF(EI_TENSOR_ARENA_LOCATION));
#else
uint8_t tensor_arena[kTensorArenaSize] ALIGN(16);
#endif
#elif defined(EI_CLASSIFIER_ALLOCATION_STATIC_HIMAX)
#pragma Bss(".tensor_arena")
uint8_t tensor_arena[kTensorArenaSize] ALIGN(16);
#pragma Bss()
#elif defined(EI_CLASSIFIER_ALLOCATION_STATIC_HIMAX_GNU)
uint8_t tensor_arena[kTensorArenaSize] ALIGN(16) __attribute__((section(".tensor_arena")));
#else
#define EI_CLASSIFIER_ALLOCATION_HEAP 1
uint8_t* tensor_arena = NULL;
#endif

static uint8_t* tensor_boundary;
static uint8_t* current_location;

template <int SZ, class T> struct TfArray {
  int sz; T elem[SZ];
};

enum used_operators_e {
  OP_CONV_2D, OP_MAX_POOL_2D, OP_RESHAPE, OP_FULLY_CONNECTED, OP_SOFTMAX,  OP_LAST
};

struct TensorInfo_t { // subset of TfLiteTensor used for initialization from constant memory
  TfLiteAllocationType allocation_type;
  TfLiteType type;
  void* data;
  TfLiteIntArray* dims;
  size_t bytes;
  TfLiteQuantization quantization;
};

typedef struct {
  TfLiteTensor tensor;
  int16_t index;
} TfLiteTensorWithIndex;

typedef struct {
  TfLiteEvalTensor tensor;
  int16_t index;
} TfLiteEvalTensorWithIndex;

TfLiteContext ctx{};
static const int MAX_TFL_TENSOR_COUNT = 4;
static TfLiteTensorWithIndex tflTensors[MAX_TFL_TENSOR_COUNT];
static const int MAX_TFL_EVAL_COUNT = 4;
static TfLiteEvalTensorWithIndex tflEvalTensors[MAX_TFL_EVAL_COUNT];
TfLiteRegistration registrations[OP_LAST];

namespace g0 {
const TfArray<4, int> tensor_dimension0 = { 4, { 1,96,96,3 } };
const TfArray<1, float> quant0_scale = { 1, { 0.0039215688593685627, } };
const TfArray<1, int> quant0_zero = { 1, { -128 } };
const TfLiteAffineQuantization quant0 = { (TfLiteFloatArray*)&quant0_scale, (TfLiteIntArray*)&quant0_zero, 0 };
const ALIGN(8) int32_t tensor_data1[2] = { -1, 576, };
const TfArray<1, int> tensor_dimension1 = { 1, { 2 } };
const ALIGN(16) int32_t tensor_data2[4] = { -1768, 75, 775, 682, };
const TfArray<1, int> tensor_dimension2 = { 1, { 4 } };
const TfArray<1, float> quant2_scale = { 1, { 4.4987067667534575e-05, } };
const TfArray<1, int> quant2_zero = { 1, { 0 } };
const TfLiteAffineQuantization quant2 = { (TfLiteFloatArray*)&quant2_scale, (TfLiteIntArray*)&quant2_zero, 0 };
const ALIGN(16) int8_t tensor_data3[4*576] = { 
  -65, -12, 43, -1, -55, -10, -30, 19, -5, 11, -33, 18, 38, -4, -2, 35, -51, -46, 34, 14, -52, -1, 21, 30, -24, 32, -42, -58, -60, 27, -58, -61, -27, -50, -24, 9, -33, -11, 29, -7, -58, 1, -75, 31, 36, 5, -14, -66, -17, 48, 22, 16, 30, -31, -27, -9, -31, -27, 5, -47, -46, -31, 30, -25, -57, 33, 10, -14, -30, 31, -1, -20, -62, 7, -39, -20, 9, -15, -26, -56, -16, 22, 34, -11, -46, 3, 1, 23, -48, 35, -42, -61, -6, -103, -64, -48, 15, 25, 6, 1, -35, 19, 13, 2, -37, -13, -71, 26, -58, -47, 35, 37, -27, 37, -31, 0, -44, -58, -44, 3, 4, 35, -29, -41, -31, 45, -34, 21, -42, 37, 34, -78, -30, 4, -19, 24, 48, 1, 5, -11, 18, -24, 4, -26, 34, -6, 36, 1, 12, -3, 4, 5, -21, 25, 5, 33, -29, -38, -26, 0, 34, -33, 11, -8, -13, 45, -9, 52, -32, 5, -65, 57, -31, -37, 8, 39, -19, 41, -54, 19, 7, -72, -1, -61, -51, 17, 20, -20, -78, -42, 22, 20, -31, 53, 15, 20, 43, -59, 3, -29, -69, 36, -30, 33, 36, 64, -42, 19, 16, -43, 9, -59, -11, -2, 12, 20, -72, -51, 45, -6, 11, -51, 43, 37, 31, -26, 38, -10, 25, 7, 3, -1, 33, -83, -11, 35, 0, 4, -19, -49, 41, 51, -14, -54, 58, 5, -9, 26, -1, -14, 11, 30, -25, -15, 19, -55, -36, 22, -29, 16, 55, -42, -7, -62, 38, -61, -26, -20, 6, -15, -69, -16, -1, 46, -52, -36, -68, 5, -32, -12, -42, -35, 28, 12, 35, -78, 69, -3, 36, -25, 16, 40, -2, -25, -39, -35, 78, -37, 25, 43, -22, -2, -32, -46, 3, 10, -41, -16, 10, -51, -102, 47, 38, -39, -23, 16, -10, -13, -38, 27, 13, 15, 39, -51, 53, -28, -11, -17, 62, 8, -16, 56, 59, -28, 16, 39, -13, -15, -17, -90, -67, -17, -63, -24, 58, 31, -21, 27, 19, 34, -20, 22, 72, -14, -61, -46, 57, 16, -7, 32, -1, 30, 63, 76, -9, 8, -4, -40, -16, 3, 1, 45, 6, 0, 39, -9, 18, 35, 52, -42, 26, -52, 12, 64, 49, 19, -27, 28, -30, -12, 7, -43, 3, 17, 16, -25, 26, 32, -57, 28, 13, -69, -6, -10, 39, 31, -6, 5, 22, -37, 43, 14, 44, 35, 17, -57, -50, -1, -38, 7, -4, -2, -49, -21, -23, -7, 41, -13, 24, 41, 18, -18, 32, 17, 35, 27, 4, 45, 1, 12, -16, -21, -58, 37, -20, -17, 27, 20, 5, 28, -77, -18, 19, 48, 1, 35, 18, 4, -4, -44, 14, 41, -40, 25, 16, -34, 0, 16, -28, 21, 16, -11, 33, 20, 18, 41, 40, -29, -18, 19, 5, 56, 36, -59, -19, 14, -32, 2, 31, -13, 27, -16, -29, 58, -12, -37, 11, -6, 59, 13, 28, -58, -49, 6, 55, 0, 56, -36, -35, -19, 18, 58, -35, -27, -5, -45, -41, -8, 25, 45, 33, 36, -29, -22, 40, 48, 53, 24, 47, -24, -32, -29, 32, 24, 18, -49, 27, -27, -13, 54, -2, -26, 10, -48, -41, -34, 40, -15, 0, 1, -38, -3, -55, 46, 56, -18, 26, -15, -38, 48, 6, -27, -16, 39, -24, -15, 55, 1, 47, -9, -52, -76, -12, 46, 37, 43, 
  12, -41, -22, -2, -13, 38, 1, -46, -16, 7, -28, 30, -8, -26, 73, -38, 21, -29, 35, 29, 6, 38, -28, -35, -32, -15, 37, -17, -28, 29, -1, -25, -7, -12, 37, -22, 2, 21, -41, 37, 27, 43, 25, 22, 27, 16, -17, -2, -71, -12, -4, 26, 47, 23, 16, -23, -24, -17, -24, -18, 28, -15, -25, -16, -20, -19, 15, -16, 25, 70, -11, 20, 18, 9, -9, -6, 18, 29, -14, -44, -11, 13, -17, 53, 37, 17, 57, -23, -6, -4, -7, 17, 8, -41, -9, -18, -10, -14, -15, -103, 38, 22, -27, 41, 16, 72, 29, -55, 1, 29, 20, -2, -88, -7, 38, 12, 62, -5, 21, -22, -24, -96, -57, -7, -40, -8, 37, -21, -38, 22, -58, 25, -9, 56, 31, 34, -22, 17, -28, -67, -18, 36, 22, -8, -7, -17, 23, 69, 0, 26, -19, 6, 6, -5, 33, 20, -4, -17, 42, 15, -5, -7, -5, -70, -42, -22, 58, 3, 6, -23, -2, 28, -4, 44, 25, -41, 9, -4, 29, -29, 57, -19, -25, -38, 15, -70, -20, -4, -25, -37, 17, -25, -29, -26, 27, -2, -46, 63, -20, -20, 38, 31, 30, -20, -9, -31, 51, -75, -40, -61, -18, 32, 5, -29, -33, -19, 29, 11, -45, 30, -27, 30, -30, -81, -31, 2, -46, -17, -50, -36, 16, 21, -31, 51, -13, -39, -36, -25, 40, -7, -15, 54, -1, 28, 30, 13, -5, 5, 4, -42, -25, 18, 15, -46, -28, 21, 1, -59, 16, 18, -90, 52, 38, 56, -52, 68, -38, -65, -60, 47, -13, -37, -77, -24, -33, 59, 6, 34, 23, 37, -51, 44, 19, -25, -75, -8, -54, -34, -17, 34, 11, -13, -3, -43, 60, -1, 33, 53, 22, -40, -29, 3, -9, 76, -43, 67, -18, 40, -39, 48, 2, -62, -59, -60, -12, 28, -44, 58, 34, -39, 22, -53, -29, -38, -34, -23, 23, 40, -21, 31, 16, -34, 67, 41, 4, -40, 11, 47, -13, 30, 12, 15, -23, 62, 49, 42, 24, 17, -11, 39, -55, -14, -76, -3, -35, -60, -16, 36, -58, -62, -7, -15, -38, 16, 42, 36, 47, 67, 33, 52, 61, 16, -57, -10, 8, -60, -24, -54, 4, -23, -53, 10, -2, -20, -11, -33, 35, 71, 0, 22, 6, 28, -14, -29, -39, -6, 4, -19, -11, 37, -11, -39, -79, 50, 4, 44, 25, 66, -30, 54, 35, 16, -37, -18, -2, 20, 19, -25, -15, 7, -48, -31, 7, 37, -38, -28, -10, 0, 18, -28, -4, -32, 2, 11, 19, 26, -41, 64, 77, -34, 7, 6, 19, 23, 11, 58, -4, -22, -2, -29, -14, 56, -14, -48, 2, 60, -10, 33, -40, -53, -34, -39, -51, -21, -37, 30, -49, 1, 53, 36, 21, 2, 13, 8, 50, 27, -14, -42, -50, 22, 40, -21, 35, -10, -31, -7, 31, -35, -30, -31, -21, -27, 37, -33, 44, 29, -1, 7, -12, -34, -30, 9, -14, -37, -7, -40, -39, 34, -40, 32, -11, -27, -10, -43, -43, -23, -14, -70, -44, -2, 28, -8, 9, 5, -5, -28, -21, 39, 27, 48, -41, -18, -14, 13, 37, 9, 13, 45, 45, 0, -72, -16, -48, 53, 3, -47, 16, -14, -2, -20, -55, -43, -48, -2, -16, 30, 17, 27, 29, 43, 0, 49, -7, 7, -11, 44, -34, -38, -64, 25, 38, 3, -69, 56, -37, -21, 
  10, 9, -32, 2, -18, 9, 15, 12, 1, -9, 23, 48, 1, -20, 42, -8, -6, -26, 26, 7, 20, -6, -8, -22, -5, 18, -3, -33, 14, -29, 13, 14, 4, 21, -58, 81, -15, 16, -60, -43, 14, 48, -10, -22, 52, 25, 37, -25, 38, 34, 27, -13, -40, -8, 41, -7, 18, 59, -30, -51, 26, 20, -37, 22, 9, 4, -40, 52, -17, -5, 27, 48, 20, -37, -14, 65, 34, -21, 55, 12, -29, 33, 34, -4, -26, -24, -40, -10, 5, 55, 9, -40, -39, -34, 7, -41, 13, -2, 0, -12, -4, -38, -41, 15, 26, 21, 10, -19, -29, -25, -7, 37, 53, 13, 15, -31, -39, 22, 70, 18, -6, 10, 21, -33, -41, 3, 36, 0, 31, -9, 32, 46, -11, -8, -28, 28, 34, -23, 18, 12, 49, 16, 16, 25, -8, 41, -7, -21, -25, 9, 41, 11, 25, 40, 38, 48, 21, -68, 8, -26, 28, -9, -56, -8, 2, 0, -24, -50, 0, 27, 24, -30, -24, 20, 28, 37, 48, 25, -3, -14, -18, 53, 48, -32, 27, 8, 23, 7, 17, 41, 41, 45, 10, 34, -25, 1, -71, 37, 30, -45, 4, 20, -23, 29, 26, -9, 23, -10, 12, 44, -49, -67, -11, -30, -14, 5, 19, 25, 68, -40, -27, -56, 33, 14, -22, -18, -55, -20, 24, 42, 31, 56, -35, 14, -12, -20, 65, 12, 19, 40, -38, -9, 31, -25, -59, 17, -47, -48, -61, 28, 39, 30, -28, 56, -14, -30, -36, 22, 30, 5, -25, -25, -9, -13, 24, -34, -15, 10, 45, -25, -3, -2, 38, -83, 0, -52, 29, 41, 54, -63, 37, -16, 6, -36, 30, 11, 32, 62, -44, -31, 12, -30, 16, 29, 17, -19, 26, 2, 3, -43, 56, -47, 25, 16, -33, -17, 39, 8, -29, -27, 16, 11, 24, -4, 17, -45, 38, -10, -22, 41, -42, -22, -3, -15, 17, 28, -27, -40, -39, -25, 8, 34, -72, 36, 10, -18, 19, 16, 42, -39, 45, 28, 67, -45, -40, -61, 31, 11, 30, -51, -32, 21, -46, -12, 42, -40, -77, -15, 40, 6, -51, -41, -34, 18, -27, -10, -9, -42, 16, -30, -55, -18, 29, 10, 31, 30, 16, -15, -32, 27, -40, 20, 12, -48, -69, -24, -56, -52, 34, -22, -27, -36, 24, 40, -15, 7, -23, -42, 38, -43, -19, 45, -5, -56, 51, 39, -27, -46, 14, -6, -32, -19, -33, -62, -35, 12, -45, -8, -27, -40, 36, -19, -1, -18, 64, -15, -19, 49, 37, 27, 13, 25, 3, 21, 2, -51, -6, -127, -117, 27, -17, -50, 26, 46, 27, -13, 34, -52, -44, 36, 31, 9, 7, -35, 7, 45, -7, 58, 27, 30, -24, -21, 70, 50, 24, 4, 68, -28, 7, -16, 19, 46, -59, 3, 1, -52, -24, -19, -31, 15, -36, -55, 14, -1, -22, -8, -12, 34, 46, 39, -26, 3, 1, -16, 25, -5, 37, 2, -89, -46, -23, -63, -54, -14, 27, 11, -48, -17, 3, 10, -14, 16, 50, 1, -10, 28, 22, -13, 29, 9, 34, -8, -28, 32, -45, 10, 32, 27, 30, -53, 23, 3, -27, 41, -20, 75, -81, 2, -47, 37, -23, -13, -11, -44, 15, -41, 30, 2, 39, 29, -2, 39, 3, -14, 29, 19, 25, -12, -35, -22, 49, 20, -30, -7, 15, 74, 24, 27, -16, -5, -11, 40, -3, -66, 19, -29, 
  58, 24, 27, 35, -9, -67, 28, 35, 36, -32, 5, -27, -56, -25, -65, 25, 60, 3, -10, -45, 45, 30, 6, -67, -5, -19, 29, 18, 34, -20, -6, 36, 20, 32, 26, 8, -16, -13, 35, 48, 35, -11, -14, -9, 19, -5, 15, 22, -1, 21, 37, 38, 22, 23, 0, 10, 32, 0, -1, 10, 49, 2, -48, 20, 36, 3, -33, 16, 36, -7, 35, 27, -20, -7, -44, -39, -33, 2, -45, 38, -8, -29, -53, -50, 22, 20, -2, -63, 20, -69, 24, 11, 20, 17, 33, 27, 6, -26, -9, -59, -40, 2, -17, -24, 43, 7, 10, -8, 3, 36, 17, -8, -16, -48, 34, 1, 22, -24, -27, 14, 43, -3, 43, 31, 46, -32, -30, -14, 57, 20, 17, 17, 5, -55, 36, -8, -18, -52, -20, -29, 37, -43, -35, 11, -29, -57, -30, -19, -14, -15, 42, -53, 50, -28, 21, 14, -9, 12, 12, 31, 0, -43, 45, -65, 7, 32, -56, 10, -3, -29, 25, -46, 22, 35, -9, -32, -26, -60, -2, -15, -15, 31, -36, 21, 26, -25, -59, 3, 32, 28, -93, -25, 18, 17, -40, 41, 30, -8, -5, 35, 54, -15, -7, 9, -76, 7, 43, 12, -10, -15, 55, -19, -45, -24, 33, -34, 26, -55, -58, 48, 37, -10, -57, -26, 0, 43, 21, 9, -50, 5, 15, -21, -3, 11, -39, 44, -36, -29, -66, -12, -11, -14, 41, -52, -15, 21, -29, 34, -11, 65, -26, -74, -19, -25, -30, 27, 53, -3, -57, -12, -19, -35, 7, -44, -47, 16, -41, 13, 10, 16, 68, 37, -39, -28, 41, -1, -28, -24, -7, 6, -21, -47, -51, 36, -6, 32, -16, 14, 29, -29, -15, 3, 34, -7, 26, 35, -34, 36, -15, -39, 46, -51, -37, -7, 18, -44, 39, -10, 22, 47, -16, 14, 21, 39, 54, -49, -34, -16, -25, 6, -13, 31, -41, -47, 18, -66, 10, -29, 15, -54, -33, -32, 17, -89, -39, -40, -89, 13, -9, 22, -69, 33, -15, 53, 22, 33, -56, -54, -24, -56, 7, 5, -8, 27, 29, -6, 17, -46, -37, 31, 29, 1, -33, 4, 56, 38, -38, -2, -7, 10, -25, -9, -18, -1, -93, 5, 42, 14, -70, 25, 27, -72, -80, -31, 6, 7, 22, -29, 36, 28, -41, 19, -9, -83, 32, 4, -4, 37, -17, 32, -35, 36, 13, -5, -52, 2, 14, -26, 9, -50, -19, 20, 26, -9, 24, -15, 61, -19, 23, 16, -30, -10, 6, 3, -26, 9, 10, 27, -12, -32, -102, -46, -24, -12, 11, -7, -5, -9, 29, 6, 19, 52, 30, 0, 23, -56, 7, 13, -24, -3, 3, 0, 30, 6, 19, -74, 18, -12, -11, -33, 43, 40, 21, -56, -43, -40, -1, -17, 32, 19, 45, 24, 24, -57, 21, 35, 7, 23, 4, -79, 33, 34, 8, -36, 5, 20, -11, 71, 1, -32, -23, 23, -32, -41, -51, 44, 23, -24, 33, 37, 44, -12, 20, -30, 33, 24, -25, -48, -1, -3, -30, -31, -11, 40, -54, 65, -2, -35, -18, -63, 29, -72, -39, -10, 6, 21, -48, -99, -64, 0, -59, 0, 4, -8, 47, -9, 10, -56, -53, -24, 25, 17, 5, -39, 58, 45, -35, 30, 40, 4, 45, -13, 73, -53, -40, 41, -68, 5, -29, -58, 41, 23, 5, -56, 29, -53, -88, -57, -6, 7, 34, 63, 83, 12, -78, -34, 
};
const TfArray<2, int> tensor_dimension3 = { 2, { 4,576 } };
const TfArray<1, float> quant3_scale = { 1, { 0.00234460667707026, } };
const TfArray<1, int> quant3_zero = { 1, { 0 } };
const TfLiteAffineQuantization quant3 = { (TfLiteFloatArray*)&quant3_scale, (TfLiteIntArray*)&quant3_zero, 0 };
const ALIGN(16) int32_t tensor_data4[64] = { 429, -509, -1661, 968, 170, -436, -1235, -243, -582, -670, -690, 189, -1433, -1011, -73, -1455, -1413, 459, 409, 277, 851, -672, 501, -75, 450, -469, 780, -1249, -893, -243, -685, 324, -337, 308, -752, 531, -767, -1134, -102, -613, 1225, -741, -1248, -1090, 1916, -119, -201, -612, -183, -452, 753, -1955, -987, 1167, 7, -283, -998, -335, -1316, 565, 582, 345, -1605, -1625, };
const TfArray<1, int> tensor_dimension4 = { 1, { 64 } };
const TfArray<64, float> quant4_scale = { 64, { 4.2560441215755418e-05, 3.3792908652685583e-05, 2.9292621547938325e-05, 3.665257099783048e-05, 3.236943666706793e-05, 3.1769526685820892e-05, 1.6161156963789836e-05, 2.4984683477669023e-05, 3.0405100915231742e-05, 2.6574989533401094e-05, 1.4645177543570753e-05, 2.6591853384161368e-05, 3.9938644476933405e-05, 2.9923890906502493e-05, 3.3411364711355418e-05, 2.661110193002969e-05, 3.6497236578725278e-05, 3.9385438867611811e-05, 3.592631037463434e-05, 4.240719135850668e-05, 2.9407407055259682e-05, 1.3930055501987226e-05, 2.7814392524305731e-05, 3.2390475098509341e-05, 2.711947490752209e-05, 3.8120149838505313e-05, 3.1070165277924389e-05, 4.6375505917239934e-05, 3.6857494706055149e-05, 3.0873103241901845e-05, 3.0914947274141014e-05, 3.9593011024408042e-05, 2.9995353543199599e-05, 3.6824148992309347e-05, 2.9668417482753284e-05, 2.994799979205709e-05, 3.1796476832823828e-05, 2.202100949943997e-05, 2.8474811188061722e-05, 3.5497298085829243e-05, 3.0473076549242251e-05, 3.4182477975264192e-05, 2.9333590646274388e-05, 2.8694466891465709e-05, 3.2911200833041221e-05, 4.1210601921193302e-05, 3.3818836527643725e-05, 3.8009668060112745e-05, 3.2420612114947289e-05, 2.7702659281203523e-05, 3.0179562600096688e-05, 3.1968356779543683e-05, 2.7904376111109741e-05, 4.2065377783728763e-05, 3.3097116101998836e-05, 4.4023687223671004e-05, 3.7644233088940382e-05, 3.2643725717207417e-05, 2.953554576379247e-05, 4.4319887820165604e-05, 3.4314551157876849e-05, 2.9149823603802361e-05, 3.7894060369580984e-05, 4.0266404539579526e-05, } };
const TfArray<64, int> quant4_zero = { 64, { 0,0,0,0,0,0,0,0,0,0,0,0,0,0,0,0,0,0,0,0,0,0,0,0,0,0,0,0,0,0,0,0,0,0,0,0,0,0,0,0,0,0,0,0,0,0,0,0,0,0,0,0,0,0,0,0,0,0,0,0,0,0,0,0 } };
const TfLiteAffineQuantization quant4 = { (TfLiteFloatArray*)&quant4_scale, (TfLiteIntArray*)&quant4_zero, 0 };
const ALIGN(16) int8_t tensor_data5[64*3*3*64] = { 
  /* [0][0][][] */ 13,-36,-19,-17,-24,-6,65,23,-20,-11,-37,-19,18,32,3,1,39,24,43,-25,22,-44,-3,-12,23,-5,-24,-2,25,49,12,41,-22,45,-29,12,-23,-4,38,10,19,-4,22,31,40,27,-12,-16,1,3,-53,-18,-10,4,-19,-32,-13,-19,3,-15,-64,29,5,39, 30,-39,18,39,17,14,3,8,-41,-3,-3,-12,3,4,-18,33,7,-8,40,22,6,-26,-69,13,13,-63,-37,16,8,48,20,-22,30,9,-25,15,-34,30,51,-30,23,-23,-3,4,-5,-26,8,6,-8,-49,-7,-70,19,-69,-1,-13,-21,3,-1,6,-35,29,40,8, -11,-16,3,-39,11,5,30,49,25,26,-4,-24,12,29,14,-22,22,29,43,23,6,-10,-1,34,-53,-70,-41,13,1,33,27,33,0,-13,-30,34,-11,-18,11,-5,-7,30,6,1,-14,23,27,45,-19,-18,-33,-22,-37,-36,3,8,31,8,-3,31,-14,-4,4,8, 
  /* [0][1][][] */ 13,10,-9,40,31,33,-25,33,33,-14,20,26,0,40,18,-25,23,-2,31,8,25,13,0,-2,-39,-19,53,0,3,-17,-19,24,10,-7,37,-29,-40,-12,18,26,16,23,-22,26,17,-5,27,53,13,-23,22,35,-6,-14,-2,-13,-35,28,5,11,-9,16,26,-48, -27,17,28,34,-28,-44,98,30,23,-29,14,26,3,-12,21,-8,-27,2,-32,-36,-23,1,-22,-21,1,27,6,-25,22,-32,15,-17,28,-24,23,-25,14,-20,-22,-35,-15,8,-2,-15,-6,0,13,14,-88,-10,-7,-39,-54,-47,-1,14,-23,-25,-7,14,9,-40,-25,-16, -17,15,8,-30,7,1,-97,9,-59,-24,-32,33,-38,11,1,-37,-18,17,24,-9,11,-42,-27,20,-20,36,38,-3,-9,6,-24,-66,14,17,-42,9,18,19,-11,-31,-14,-31,20,-50,-34,21,-15,27,-2,-50,2,22,-26,-58,-42,-54,16,-14,25,31,-1,7,-26,-11, 
  /* [0][2][][] */ 29,-15,-30,-6,20,30,-4,-26,8,19,29,16,2,17,-29,-52,-22,5,9,20,-29,-40,22,6,127,-37,-32,-34,21,-48,28,8,22,31,-2,38,1,-53,39,28,-4,4,0,-45,46,-28,26,-20,-46,-12,-57,14,-6,-13,13,-22,-25,32,-3,23,46,6,-29,18, -34,-41,-43,-35,-33,1,51,-19,-34,11,-13,-43,-3,-25,6,-5,11,-10,-12,-22,-35,30,-27,5,33,-68,-25,23,-16,-77,6,-38,-24,-57,-23,0,14,-69,-28,-8,-47,-44,-23,20,4,12,3,-47,-101,-89,-56,-1,-31,-54,-6,-17,-54,-35,-17,30,8,7,30,-37, -8,-9,-33,-14,-8,20,-40,20,9,7,24,2,-47,-17,-14,-37,20,-6,-33,-35,19,20,22,-39,56,-63,-61,24,17,-52,-6,-4,-5,-30,-67,-3,2,0,1,12,-5,-13,-40,-49,1,22,18,-5,-70,-31,-31,-42,-42,-22,-50,-39,-44,25,12,0,4,-14,15,4, 
  /* [1][0][][] */ -41,15,13,44,2,43,127,-1,-34,4,-29,36,56,-14,51,41,-28,-20,4,40,1,44,60,-18,40,-29,-37,0,-19,-4,-37,-10,-24,-3,15,-52,-9,17,-25,-32,2,-17,43,-6,7,-24,33,54,-26,33,19,-30,-6,42,-21,-51,-6,-26,10,41,53,-50,-20,53, 35,17,63,-41,-27,33,13,-45,7,-34,-33,67,27,3,-33,-51,6,38,-15,6,-45,11,39,37,-6,-18,-30,-19,-11,19,40,-38,-37,9,-21,14,2,4,-17,-15,-1,-45,11,9,19,-3,-7,-14,29,-46,-56,-16,-11,-59,2,-60,-27,12,-21,-31,-3,11,34,35, -20,35,58,-10,-7,-5,-1,-7,-28,-14,7,18,42,-12,31,-23,-72,-21,-16,-21,-2,42,22,-5,57,-37,25,-13,41,-50,-2,12,-4,43,-32,18,32,23,1,-29,30,-35,4,3,2,-8,-18,43,-49,40,-8,-69,-13,0,-32,-26,-25,-36,20,8,-30,-1,-13,-12, 
  /* [1][1][][] */ -28,24,4,11,9,51,124,32,-12,-1,-22,-34,-12,-47,-17,-10,-6,38,-90,11,-37,-25,-40,3,61,-42,-2,46,-33,59,-60,-27,-30,10,55,-35,-41,34,-20,-27,-16,-6,-29,27,28,32,-1,27,3,5,27,-10,-36,-3,31,17,18,49,-17,-57,-21,-63,30,-7, -20,48,-24,15,30,-19,52,3,-6,9,13,-10,-19,-25,2,11,-29,-39,-47,-18,15,37,-72,-41,-26,-68,-49,40,-31,46,-12,-4,-13,-53,3,-58,-24,27,-29,-34,15,23,-7,8,13,32,-7,-67,13,-47,-11,-45,-58,-8,-52,-8,-53,-25,-24,20,-70,11,-35,-1, 50,33,45,5,-9,-8,37,36,-23,28,37,-18,20,-55,7,1,-21,-22,-48,27,5,-40,-67,-18,7,-106,-6,43,21,-38,-15,20,-42,-10,-7,0,4,25,-36,-53,27,6,17,0,-44,-29,-5,43,9,-24,1,-48,-69,-29,-37,2,46,14,-40,-47,-31,-34,-17,48, 
  /* [1][2][][] */ -14,7,10,-36,45,-5,101,50,-3,41,-6,40,54,-24,33,-18,53,28,-9,4,62,58,-17,-30,21,-1,33,17,10,31,50,-70,11,24,9,20,14,-5,-3,-3,-9,-8,30,-22,-12,17,34,-32,44,17,64,26,1,14,29,-38,-13,-30,20,-53,-37,18,13,29, 31,-27,30,-34,17,8,14,7,14,24,30,4,48,-5,20,-21,-16,-10,30,20,46,43,10,-31,-39,-49,43,14,-31,-32,0,5,26,-42,6,-58,-18,24,36,-2,32,-50,-4,-56,-29,-36,-44,43,19,3,10,6,28,6,15,7,-28,-23,-66,-17,-36,-2,-22,56, -17,7,56,-72,29,-25,47,27,25,3,14,-47,12,-32,27,-10,-34,6,-33,23,-19,14,8,24,22,-34,32,-34,17,-26,35,-26,-22,-10,-11,11,-6,-37,26,24,15,12,23,23,-26,12,19,0,32,36,-39,46,23,-23,-19,24,-36,-34,-47,-34,16,0,8,61, 
  /* [2][0][][] */ -22,-30,46,80,-21,-78,13,14,31,28,-26,63,-50,-24,-32,10,-59,6,-34,-11,-13,-47,54,11,24,54,-10,-20,37,55,-23,62,-1,-21,-32,63,39,-47,-8,7,27,-3,24,14,-52,48,-38,32,20,21,-29,-47,-3,-21,16,36,14,-29,-21,-69,126,-18,-18,-70, -27,-47,53,42,-46,-31,-41,-65,41,18,26,56,-34,-21,-34,-7,-27,32,25,-39,37,0,4,55,-23,71,-17,-54,29,43,23,-17,-11,-18,-50,-38,-54,-55,-34,71,21,-62,1,-45,63,-12,65,43,32,-22,7,-2,59,16,-15,21,-26,11,-42,55,65,-7,19,-21, -32,3,107,-22,-31,23,-9,-46,-29,10,-34,16,18,-62,-127,-40,24,-5,-32,-80,44,-28,-22,-8,23,-20,13,-58,-43,-48,-41,4,-19,47,-7,-76,-57,-94,-49,-40,-80,-24,-33,-55,-19,3,-10,12,-115,-101,-59,-77,14,-34,35,-10,-45,0,-12,60,61,5,-19,-55, 
  /* [2][1][][] */ -27,43,29,29,46,-22,17,28,-43,-24,35,-22,4,-22,16,-93,-79,68,4,-5,-22,1,66,33,-63,9,-39,-52,-21,-67,-33,-30,11,-46,9,32,-13,-5,20,75,-27,-18,11,-28,-23,12,-6,-37,88,-24,6,31,-91,-62,-83,-51,52,9,-14,-112,3,17,-38,-37, 12,1,23,-30,-72,1,50,-30,57,16,-5,-12,-59,3,-71,74,61,16,11,-14,52,-57,1,-49,-97,90,-23,-35,-34,-46,45,45,-33,27,3,52,1,-70,3,42,21,13,22,-45,13,30,5,33,37,-18,-84,24,-5,56,60,36,-21,-30,-1,75,-60,-28,-83,-21, 2,-85,2,16,-14,14,68,-24,-76,25,-5,17,-10,-40,-31,88,61,-8,50,-46,-15,27,43,-58,50,86,35,-38,-89,13,-70,-13,-15,9,10,-42,-48,-10,-5,-17,-14,-92,-45,42,-67,28,-28,12,30,-14,-96,-76,-6,37,74,1,-4,2,-4,8,84,8,-22,3, 
  /* [2][2][][] */ 0,-34,-73,42,30,-13,106,67,-34,-15,33,-35,-6,-58,42,-9,17,-26,5,19,16,-21,40,19,18,-31,27,64,-13,0,-38,55,-13,25,-42,62,51,-18,-11,77,12,45,23,48,-77,43,5,5,44,71,-36,18,-37,-63,-18,-16,31,26,-2,-81,-14,-2,8,16, 9,35,-30,-14,12,7,-33,-59,-23,-25,49,-33,-35,19,-21,-31,34,-42,16,16,-23,0,-24,6,52,-42,-11,-1,-27,-9,33,24,-52,25,-10,-42,-46,5,-19,59,-24,52,5,-35,46,-32,-43,-12,-6,35,-11,65,59,9,72,36,-50,51,-18,12,39,-8,-7,-32, 23,-10,64,53,-82,-5,99,33,17,19,23,46,-14,-86,36,-31,0,23,16,29,-40,33,50,3,-9,-67,3,-13,-27,45,-68,56,31,19,-14,36,-9,42,1,-10,-31,-77,27,71,-55,-6,-25,-59,6,-105,-17,28,-26,42,15,103,-26,-64,-64,8,-76,-87,7,71, 
  /* [3][0][][] */ 12,-82,-13,-3,11,29,-58,57,-78,8,22,-20,11,49,-29,-16,39,26,12,-6,34,-65,53,16,127,10,-35,-19,2,2,37,7,-9,11,-31,85,22,-5,55,5,-69,8,35,29,-11,10,58,-36,47,0,-42,-62,43,-49,-2,-53,-15,-63,36,-23,-70,5,26,31, 10,-43,-40,20,-13,-62,49,-4,44,13,4,-11,29,-15,-12,-27,18,8,40,9,45,44,8,24,47,-35,-64,43,-20,-4,17,29,11,-27,9,-3,-4,51,45,-6,-18,-38,43,60,9,-10,-17,-20,21,-41,-26,-26,25,-11,-22,-31,-3,-55,13,-1,-59,-30,-28,36, -11,27,-16,28,-29,-18,29,20,-50,-31,32,-17,-2,50,-55,-24,33,28,-3,-7,36,-6,10,26,-9,-26,-66,6,-25,21,-12,69,21,-25,-16,4,32,5,-37,-33,-27,-5,52,-4,-13,-28,-16,-72,22,-57,-49,14,-32,3,-14,-42,-33,-30,8,10,-72,19,-36,25, 
  /* [3][1][][] */ -25,-15,-112,42,-33,-38,-15,5,9,-34,28,-3,-19,39,-52,-24,23,-25,2,-23,2,-6,-30,13,72,-17,-2,-54,21,-59,32,23,-34,-18,-30,18,6,-7,24,-17,4,2,-28,-23,6,0,7,10,8,28,-23,18,28,55,9,27,-8,44,-40,-4,-75,-30,-64,-8, -20,-41,-8,30,-22,-51,-11,36,2,31,30,-50,67,10,-23,-38,-19,32,-15,-36,29,-24,-38,2,23,18,-12,16,-40,-5,-29,-32,-35,-38,12,-51,-19,-30,16,-11,-16,4,-23,27,-71,-31,-26,17,-35,-4,-45,-64,-22,13,-32,20,36,-35,-25,33,-86,-43,4,-1, 0,-63,11,34,41,28,-21,9,-42,11,24,6,-6,57,-2,24,-11,-16,-25,-6,-19,-1,-37,-25,-47,34,12,-21,-4,15,21,12,-16,7,-43,-14,-33,15,28,-54,-43,2,-20,9,4,-34,-3,24,63,11,-27,-9,-80,1,5,-25,-2,-19,-4,-8,-72,-17,-18,-30, 
  /* [3][2][][] */ 11,-35,63,-56,5,-39,-30,-21,1,-9,30,-33,-18,-91,-6,-28,87,-4,34,-19,46,-46,36,40,-5,-1,-5,21,-29,-19,16,3,12,-18,-33,21,23,6,57,46,-79,-37,8,12,32,27,54,7,-2,36,-48,8,28,9,-21,-4,50,21,38,62,41,49,-16,50, 45,14,49,-17,-24,-42,27,-1,25,51,-9,2,3,-35,9,-73,-6,-14,-9,-7,28,26,-1,12,76,-10,-75,4,-45,-41,3,18,22,-52,18,-20,-49,5,1,-11,-44,-54,-38,20,-42,28,2,-5,-20,-76,-53,-5,33,25,28,-17,-22,5,73,-26,30,60,14,-21, -9,-67,-23,4,1,50,-48,-22,-31,56,23,1,-12,18,17,-26,21,-21,-43,30,-74,-54,-40,-17,1,-57,38,-26,-58,56,-43,-30,36,27,-58,3,-40,-11,-36,-30,18,-44,21,-44,-40,-29,5,-3,6,30,-72,11,0,17,2,-41,-57,26,40,-13,35,52,34,19, 
  /* [4][0][][] */ 37,-26,-81,-47,-10,35,42,1,36,-48,-4,-10,-10,-55,-27,-38,-44,5,19,13,32,19,39,53,-50,48,-33,72,-60,-35,-16,-16,-5,-21,-9,67,-38,31,-34,16,24,-34,23,82,18,-17,-29,-15,-42,-48,-55,21,42,-50,-18,-41,26,27,-27,-21,38,21,21,41, 59,-44,-18,1,26,31,-50,33,23,-3,-10,-64,30,-5,-11,44,13,-10,17,-45,7,-4,47,-18,-99,19,7,14,9,7,-24,70,-25,10,-32,39,4,-1,50,35,-37,-20,-16,80,20,-8,15,-39,52,21,-20,18,41,-31,42,-36,-8,-27,22,-46,70,23,-8,17, 32,-20,-72,-30,-29,-25,58,55,-12,-23,-34,10,3,15,9,-23,-2,21,34,25,56,53,-38,32,-78,-14,-19,29,-8,46,58,-22,-11,-21,-1,-40,-20,33,19,-19,-11,13,17,58,6,-49,-14,-29,22,-23,-36,20,45,-28,2,15,-32,-23,8,-42,6,54,36,-34, 
  /* [4][1][][] */ -21,29,52,-81,-12,-35,2,73,31,31,-30,44,-44,-55,-20,-32,-56,-2,9,-3,22,52,-21,43,70,-77,-35,10,-61,12,31,5,19,-53,15,42,-8,55,52,0,-29,-60,25,43,9,-46,-37,21,33,48,-56,-33,6,12,-28,33,-31,-41,-31,-26,14,-6,4,-32, 8,-5,-12,-25,23,22,-73,2,-41,-34,5,9,4,-54,-65,13,34,12,39,39,49,-4,27,26,7,-33,57,-34,0,27,60,21,-11,-63,-68,74,-47,-1,18,22,12,15,18,31,59,15,56,47,-4,9,-5,-51,-25,-10,-47,-18,-65,15,-62,-22,-13,27,13,-58, 37,-40,-26,-23,27,-24,29,2,41,27,-17,52,1,-8,43,-55,-12,-31,10,-13,-33,55,-13,-36,-19,-107,14,1,28,-3,38,-32,-40,-57,6,-44,-15,44,-17,-5,27,-67,-22,22,-24,-15,30,36,-52,9,50,19,23,6,-42,36,1,-42,-39,32,-72,5,-4,-34, 
  /* [4][2][][] */ 3,-14,-1,-37,16,-18,-2,33,10,-82,33,47,-63,-40,56,-44,-52,-62,-31,14,-32,9,-85,-31,29,-72,9,19,-30,-39,-15,-23,4,0,0,-21,-29,-2,-30,-63,-25,-35,-12,-61,-6,8,-8,73,6,-8,5,1,-54,-40,32,72,-49,-15,-2,75,28,-30,-33,29, -17,-16,-25,-32,2,-33,27,17,-14,-70,15,32,-75,-12,36,-16,-25,-61,-6,-37,42,-1,-52,-83,-65,-46,-26,-59,-26,-6,-48,57,46,10,19,45,-38,-52,16,27,-24,-19,-27,-24,35,2,-70,44,-38,-29,-22,-60,-11,25,-14,51,-37,-5,-39,16,-89,-47,7,-42, -41,-36,-17,-22,-59,26,-16,-53,-56,-35,-18,31,-61,10,35,19,32,23,-20,31,-11,-7,-22,-49,-2,-34,3,17,24,-25,15,-13,-27,-9,-47,-9,19,-50,-4,-66,22,-80,-43,2,25,7,-29,3,-100,-102,-10,3,-11,59,36,-37,-62,-14,-39,84,-13,-50,-21,-127, 
  /* [5][0][][] */ 15,-30,27,-86,-9,31,-17,6,-12,18,6,-15,-38,24,-23,-56,-71,-21,2,67,-36,7,6,14,15,-113,5,26,37,-34,-4,19,23,-12,-6,30,25,8,22,45,68,56,13,19,32,-43,1,50,-48,-19,32,-23,-9,-18,-45,7,59,30,-59,-49,73,-51,-16,-67, -36,-55,41,-25,-4,-14,-49,54,41,-1,45,-26,28,28,24,-27,-7,32,-43,-9,-5,10,-22,32,55,-29,-10,7,50,-17,3,22,-26,-11,-10,-31,28,17,15,36,-43,76,40,-33,2,7,20,-19,-70,1,63,-1,47,-45,-11,-31,4,-37,22,-43,41,-97,-52,-58, -15,4,-37,-49,33,64,18,-32,82,8,10,-33,-3,66,-14,32,25,22,0,54,-39,-26,-12,-37,57,-34,-16,-30,44,-28,-20,27,0,48,-4,10,42,27,-36,35,-13,22,-3,-55,62,-13,-25,-10,-31,50,-2,61,21,28,9,4,-43,-7,23,5,63,-38,19,-50, 
  /* [5][1][][] */ -44,26,-44,-46,41,29,-51,19,15,4,36,-54,-9,31,-17,40,14,-40,-42,-5,-48,27,-38,10,-92,-12,-28,10,22,35,-51,14,-6,0,43,34,-27,-46,1,68,-25,-11,-44,-75,28,45,-17,79,75,-1,-51,61,-11,15,28,45,48,19,-105,38,35,-29,-17,-15, -59,40,-13,-28,15,-46,-6,-70,-25,-70,43,-127,-9,-18,13,1,25,8,-37,-15,-49,5,27,18,-11,6,-4,-35,-36,17,-19,-23,-26,-2,13,3,-10,18,-105,15,-14,-35,-9,-63,0,-23,-17,80,-25,-65,-29,-16,51,4,24,11,27,-38,-38,11,91,-37,-12,-73, -59,13,18,-36,-7,37,-6,-116,19,-46,-34,-102,-28,-18,10,18,38,-62,29,30,31,-39,-32,-47,-65,56,-16,-63,18,-9,-40,-63,-26,21,32,-25,34,35,-78,-24,18,-60,-44,-21,58,-43,-27,97,41,-2,14,20,73,60,8,6,-1,23,-90,5,-14,-26,-46,-16, 
  /* [5][2][][] */ 50,0,-68,60,-61,-39,-39,-58,16,-33,-11,-78,-64,88,7,43,6,-3,-5,16,-12,-35,4,14,-43,28,-14,-24,-38,-45,10,7,-16,-1,41,8,-73,-31,37,27,21,4,-6,-4,-26,25,-18,-57,94,-11,-30,73,6,2,58,61,-13,-29,-2,-4,12,44,6,-39, 26,18,-91,48,-26,-72,5,-48,-32,51,35,-75,-62,-38,10,60,42,-14,-35,-74,0,-32,-19,4,-63,72,-60,-17,-11,-48,6,29,19,-18,33,-1,-28,43,-35,-1,6,2,5,33,-43,11,-35,-66,36,24,-2,68,32,16,-16,-27,1,-39,-24,-9,-50,20,15,32, 42,-43,-85,49,-54,-17,88,-62,48,-37,-22,-68,-63,-52,7,-22,41,-15,43,-15,70,3,38,14,-37,54,30,-33,-58,18,-10,-11,25,27,5,24,-54,-56,26,40,11,-3,-87,-25,28,11,61,-38,47,-13,-66,69,64,54,-12,31,-43,9,-46,55,26,36,-76,14, 
  /* [6][0][][] */ -73,64,-58,-25,-25,-10,81,-60,72,-42,37,-43,52,-23,17,-6,-81,-78,-76,-39,39,51,39,-34,12,-39,11,26,-84,-56,-4,-25,-24,39,20,-45,-23,-68,-96,59,87,-25,80,-22,42,-3,73,-104,64,-42,28,-35,39,70,12,-69,-50,23,33,-7,37,-87,-79,-35, 21,-108,-82,21,-31,-36,-88,19,49,-64,-87,77,-21,-93,15,-44,76,-57,-79,57,14,-53,-85,-39,-42,-47,55,-88,42,-101,-10,25,-23,-76,-78,31,-53,-11,-79,-92,-112,-74,-40,-82,-39,9,-112,-82,-122,-77,-37,-82,76,-87,-57,-42,-64,21,2,38,5,-55,-9,-8, -16,10,-36,76,-57,-28,-8,37,-84,48,74,29,24,70,-101,2,33,50,55,-46,-73,20,-20,37,-55,-57,-20,-75,-59,-76,-35,-75,-71,-32,42,-17,54,-50,66,-11,-83,-24,-49,32,-67,59,39,-70,86,52,43,40,-89,54,-25,-84,-11,-46,18,-51,-87,19,29,40, 
  /* [6][1][][] */ -73,-78,36,-19,-31,-39,-87,18,-108,30,-72,-106,25,3,-22,-110,-13,73,-69,-41,-90,-15,22,-2,30,21,-10,-91,-9,52,2,-29,-90,53,61,-7,34,-15,23,-29,-8,-15,0,73,-8,-28,17,-6,-81,-83,31,44,-14,54,-16,-48,67,-79,9,82,-69,-74,-46,-115, -84,-84,44,-10,4,-18,73,50,-49,31,-11,27,-16,-5,36,-90,-36,-73,-74,-101,80,-106,37,-45,46,-64,-38,10,5,25,-95,-29,-93,-92,16,-37,-45,-98,56,-94,-106,0,-103,42,-80,-44,-75,26,-25,-115,-14,-70,-59,17,26,57,69,52,57,3,62,-44,-16,-29, 3,-11,-80,-69,63,31,-51,34,-53,-15,-95,26,-23,-79,-41,-103,-49,-6,48,4,-3,42,-31,-37,-2,38,-80,29,6,-95,-49,11,-63,18,-13,-20,-59,-7,-68,72,-90,-24,36,-39,48,-83,20,-96,72,8,-108,84,-11,31,-24,-69,52,-24,-62,-19,-4,10,30,-74, 
  /* [6][2][][] */ -114,-35,21,63,21,-87,-3,39,-103,50,-77,-67,-73,-9,0,55,-81,-9,-6,32,-10,-80,-10,62,-107,40,-46,26,-49,15,-2,33,-38,-75,-108,-57,38,55,-96,-8,-107,-68,0,-12,-39,-52,-57,16,88,-69,-68,-87,72,39,27,-106,60,-104,-60,-50,48,-32,24,-38, -96,37,-70,7,-96,13,-66,-41,-18,-6,64,75,1,-38,-9,-98,-92,25,-1,18,-22,34,-66,-51,-18,75,28,61,54,-96,-20,26,-49,-56,-13,29,-67,-9,23,-44,4,-32,-68,-15,-5,50,-54,-97,66,-14,5,4,-22,-72,29,30,-39,-85,27,-35,-35,-33,-11,-53, 38,-2,36,-87,29,-68,71,-71,-95,-112,30,-81,-50,-108,24,18,-78,-34,-71,-107,-34,-13,-53,40,-62,12,-50,-127,-19,-106,-44,30,80,1,-24,-41,50,-17,3,-17,-56,-51,-105,33,60,78,29,81,-100,48,19,-37,-34,-21,-86,56,-48,52,77,85,-84,-52,-33,-96, 
  /* [7][0][][] */ -31,-16,64,-57,58,10,-42,56,50,-19,-47,37,-24,11,33,6,22,-19,31,45,4,28,63,-72,-87,-20,-53,3,69,59,-56,8,38,66,93,-61,-35,74,-3,47,72,16,35,-17,-56,-11,0,62,58,-27,96,69,-8,74,-4,26,56,33,76,-60,121,-65,-34,-52, 78,48,42,-97,39,15,20,57,90,-19,18,124,-79,-32,60,7,-2,97,7,11,-27,0,39,-82,14,-106,9,-9,41,27,61,-123,-22,-2,-42,13,-7,-60,-41,13,-2,25,18,41,79,-61,39,27,94,67,66,106,1,65,-38,46,-4,45,31,0,-45,-12,-15,-25, -54,-35,102,-4,-36,-48,36,37,10,-69,-47,108,-19,42,52,-39,-42,-54,-10,44,-25,50,-36,11,61,-85,-42,-67,3,-15,13,-65,-19,21,-44,-9,29,-45,-65,15,24,-14,-77,-18,40,46,-66,-31,-24,-56,-51,-13,-56,45,89,-8,-63,45,47,53,100,5,-52,-91, 
  /* [7][1][][] */ -55,-73,-16,60,-50,-52,-34,-4,-39,2,-24,48,-20,17,6,82,99,24,28,-38,84,-33,-45,-64,-40,122,-89,14,-10,-24,-78,-59,-11,-63,-1,-29,-87,-20,13,12,11,-17,-79,-44,-68,-34,-70,24,9,29,-37,91,-41,80,67,16,-42,33,34,56,-91,-61,-69,-44, -3,-58,-84,-26,-71,-24,35,-7,-49,-44,42,49,-29,-47,30,-48,62,-30,-15,-60,-12,-72,23,-30,-28,20,19,-2,51,-56,42,2,24,63,-17,-51,-19,-70,-20,24,7,-40,-35,-60,23,-25,32,32,37,16,-62,70,14,76,50,25,29,24,-54,22,-7,10,-60,-99, -32,-38,32,11,-34,40,-27,-34,53,25,5,30,3,51,-3,48,24,-67,-14,-34,6,-20,-64,-68,-97,9,8,-65,-23,-93,60,-127,-29,-6,-51,-115,7,-82,20,-14,43,-29,10,-26,62,47,7,-69,-87,25,-26,-4,34,-86,23,-16,-5,-18,-22,-64,17,-12,-52,-100, 
  /* [7][2][][] */ -80,-1,34,23,44,25,-25,-99,0,-10,-45,-85,-35,64,-15,16,10,-4,-10,37,48,-43,76,-20,40,54,-34,40,26,21,17,15,62,-49,-33,-41,-41,-40,-37,28,46,26,-5,-63,-78,-6,27,31,-11,-55,-7,100,-60,-13,75,-2,-28,-66,59,38,-56,23,-32,-8, -68,-52,-125,57,17,-48,5,-24,45,58,35,-22,-56,-22,-36,-34,12,-21,49,2,74,10,61,11,24,-72,27,-50,-5,-37,-1,-32,56,-61,-113,54,-28,22,28,-16,48,2,8,-68,-49,49,-21,90,-2,20,-71,-14,58,-43,31,20,30,-45,4,-4,31,-33,-5,89, -52,-17,-53,96,35,50,-91,-26,21,76,-13,5,15,70,81,-26,-22,-48,-14,29,48,-1,33,65,34,-56,82,26,-12,-5,30,103,49,11,25,3,20,39,-79,98,-1,-15,-16,-41,6,-16,76,48,-10,5,17,-15,66,23,-35,-94,-9,51,-17,-73,11,-19,53,83, 
  /* [8][0][][] */ 38,-38,-11,0,-69,-70,26,-47,17,41,-27,41,68,-89,28,38,-24,-55,-35,1,-10,-5,65,-22,-2,-26,43,-17,4,26,-4,-3,22,25,51,-8,-25,23,6,-54,7,-77,-17,14,-16,-15,-3,1,-59,-43,-13,-7,-9,28,-3,-56,27,-23,-16,-19,-11,-49,11,26, 8,19,-13,13,-20,11,-36,55,54,61,-36,-24,-10,27,-44,-18,8,-5,-3,-29,6,29,47,-12,-27,19,51,13,50,5,10,-9,-32,48,-25,-28,-63,-14,-5,46,-19,56,25,18,25,4,61,-5,-5,22,18,-17,-24,12,-38,-68,-28,44,22,-23,-46,-36,-52,18, -61,16,-34,-105,-27,-60,67,2,-40,-33,-23,-57,-59,-33,63,29,4,-39,-47,-20,61,63,-9,-62,61,14,11,-52,46,-5,38,12,35,2,61,7,29,-67,1,-74,-38,6,24,-57,64,38,5,15,-65,3,97,-9,83,49,-22,-2,3,-51,34,-32,1,-21,16,-16, 
  /* [8][1][][] */ 5,-26,21,-20,18,0,-14,6,-15,28,18,23,62,-92,-114,-74,-37,54,33,-86,-21,-95,68,-33,-16,43,-47,7,-54,13,14,61,-39,-44,-46,-36,-78,24,42,-14,-37,-54,-1,17,-23,-27,4,68,-41,-53,11,-61,6,-36,-67,-27,-23,-29,-29,-24,-10,-73,-53,-9, 60,-34,3,-92,40,-52,-30,1,70,-55,-42,-67,-39,-7,-47,-27,-19,1,31,9,-5,1,-25,54,7,33,70,-49,-8,10,3,-9,-1,55,42,43,-5,-49,17,59,5,20,24,-40,51,16,-4,-41,4,-43,-23,-50,-33,16,-7,-40,-32,-2,16,42,-81,-25,-22,41, -75,30,-68,-90,-13,21,-10,-30,-2,-14,-19,12,-39,13,50,-34,-15,-11,-21,10,-43,-28,-108,-35,-109,64,77,-7,55,-58,-88,4,35,78,44,-43,18,45,41,-62,-65,-5,-17,-18,52,-12,-18,-38,-47,-25,20,44,13,55,27,62,-39,-63,-4,89,-15,-42,-40,-65, 
  /* [8][2][][] */ 3,1,69,45,-50,-36,70,-24,-3,5,-28,48,22,-83,-39,-2,-5,-59,-57,4,-45,41,26,-28,-73,10,14,-28,-19,-40,22,30,-21,-14,-13,0,-31,-32,17,28,2,-39,-18,-42,16,-2,-7,39,23,-30,45,6,16,-37,29,-8,-6,-56,-37,-31,76,-11,-24,8, 30,16,-20,-49,18,-25,-15,-12,6,-29,-31,-47,-39,-52,3,38,45,-25,56,23,-63,-29,7,-16,-42,34,34,29,-11,-7,11,-45,21,38,-4,2,-34,-50,57,8,-17,28,-74,-87,45,12,-7,20,74,-34,1,-59,11,-1,37,-14,-51,14,-33,4,43,24,39,-31, 16,-32,-78,-10,40,-1,-7,52,-23,-15,-3,-59,33,21,52,-8,46,-51,26,-54,49,18,-94,56,-127,100,16,70,20,-20,-34,15,31,40,-12,-3,-52,-28,-44,-97,-31,-56,48,-2,-30,-11,19,-10,-18,-110,21,47,-18,-11,71,-21,-32,16,-12,45,-3,54,32,-105, 
  /* [9][0][][] */ -41,35,44,-58,84,1,95,72,-76,59,56,26,53,27,39,-4,-47,78,-14,-11,7,-52,-20,-35,-50,-68,18,-16,-54,15,-12,21,38,-31,32,28,7,-11,31,2,58,16,10,-8,-3,21,-10,18,-66,42,-33,59,68,-43,-36,47,-29,29,-56,17,-32,36,-47,-22, -67,35,-44,55,-24,10,97,34,-1,34,-15,-29,7,54,15,34,25,-28,30,34,-64,68,-9,-49,-53,-3,-11,44,-75,-20,3,-6,-53,-87,-44,-29,-44,-1,-15,-64,-3,-34,78,-50,-89,-1,-50,19,-11,25,-44,83,-73,2,38,27,70,-49,17,4,61,-75,-72,-69, 23,-8,49,-21,67,-10,63,0,-46,43,-15,8,-16,38,58,-20,-53,37,30,69,-60,40,-10,89,31,-46,-50,63,34,-50,20,2,-11,6,-19,-77,-44,-3,-38,32,15,-5,29,-15,-23,34,69,56,12,101,-41,-9,-69,-41,-32,-81,85,-3,-53,-9,-11,6,34,-57, 
  /* [9][1][][] */ -85,-64,-93,-69,19,26,-107,-53,-33,-48,4,-71,-63,42,0,-29,-21,18,40,-52,-10,52,7,-59,-55,3,24,-8,10,11,43,-42,9,37,2,-19,-51,-29,0,-19,45,-17,-12,-68,32,0,29,6,18,37,21,-27,68,63,-10,-50,-14,37,52,22,5,-53,42,-20, -115,-53,-83,53,-53,-10,-33,-17,26,-13,7,-60,25,-41,69,22,30,-48,-30,-8,25,20,-96,-61,26,4,24,24,24,-50,-9,-16,34,-59,-17,-18,-42,-16,21,-79,12,44,-14,-127,-62,-19,-13,48,26,-15,52,45,-3,5,36,-56,-36,12,-54,-5,30,-70,-36,-23, 59,0,-38,-33,15,52,67,-30,-44,-60,-9,53,-46,50,45,53,42,41,48,-19,10,-22,-38,-23,58,-1,-20,12,27,-7,-29,-49,-50,-22,51,-30,28,76,49,-7,50,22,-25,-59,3,1,20,-69,48,56,60,35,-48,64,-15,-4,21,28,52,29,-38,-44,23,21, 
  /* [9][2][][] */ -7,-26,-82,75,10,-14,-56,-70,-20,-47,-43,-39,43,-22,-55,12,-12,-13,-2,-67,-7,-14,28,-68,-10,51,2,-78,-43,-64,30,8,-33,-93,20,-45,-43,-40,37,3,-64,-68,-6,-50,11,51,29,-83,32,-18,-8,6,-2,-17,-28,-52,-46,-23,37,36,-14,16,-45,-8, -86,-75,31,6,-52,-72,46,-31,-25,9,30,-52,-3,-70,23,46,-1,32,-11,-19,-16,-23,4,9,-17,-18,15,-51,-35,2,-39,12,-1,12,-18,-20,-102,-25,-66,-41,-37,-23,-5,-22,-45,-47,6,17,31,23,-2,26,-29,27,82,36,-69,35,13,60,-6,-9,7,12, -39,30,-46,0,-52,7,-18,32,-16,-48,-19,-43,-16,38,29,60,-3,16,-3,14,-42,1,-39,37,-18,-17,-7,-64,-30,-66,-9,58,17,16,34,36,-36,-14,-59,23,44,44,38,-53,-9,36,-44,33,19,27,-21,-22,4,68,69,-77,0,51,-13,12,-65,-18,-37,-12, 
  /* [10][0][][] */ -53,71,-22,-59,-68,-83,-62,-55,-45,37,31,-108,-14,8,-85,-40,14,49,-63,6,-117,26,41,-54,83,19,-22,58,-96,6,22,-53,-93,13,13,-23,-24,11,-102,55,54,77,13,-21,20,75,56,-21,61,-92,-19,49,4,30,-18,3,19,21,75,42,-48,7,-2,-20, -118,-70,11,-29,9,62,70,-81,-17,-99,-6,-64,-82,-102,-65,67,-108,-120,33,-48,-82,27,-31,31,-94,-18,-82,-25,25,-77,-64,-76,82,36,55,14,-68,-104,-97,66,40,41,-63,-16,-74,-71,-75,-68,-115,-40,54,29,-76,23,78,-110,-15,67,82,-58,59,-10,-18,69, 22,27,83,-50,12,72,31,21,-101,-30,-72,-12,-30,84,-61,-78,-7,4,-91,34,32,-86,79,-106,-57,5,-32,35,-96,38,-71,-20,7,44,29,70,-42,-39,56,35,17,26,73,-65,78,86,36,82,-29,-25,40,-87,-2,12,-103,35,-11,-50,-42,15,-118,-61,-85,-4, 
  /* [10][1][][] */ 43,24,-11,46,8,-27,-9,-10,73,21,-5,-23,30,81,-71,63,47,-10,-125,77,-46,-94,-32,-113,-100,-97,1,64,-64,64,-73,-32,36,59,24,9,42,-52,-75,-30,-45,-53,42,-66,-45,-32,-36,25,-87,65,8,-104,61,9,17,-20,-4,66,3,2,-98,-60,-108,-107, -62,-104,-95,3,51,-79,-32,-28,-19,3,-48,0,-52,-113,18,-91,-8,-110,-115,63,75,-78,14,42,-23,-98,30,58,-97,-18,-26,34,-105,-58,43,-81,14,-32,67,6,0,-13,-87,65,54,43,-102,29,-94,-29,-9,33,-41,-98,70,-14,25,-106,-107,-24,-110,-72,-1,-78, -107,-9,-28,80,73,-5,47,-62,-77,-4,-39,56,74,-49,-93,-82,-65,-59,68,-45,-102,36,-61,-31,-69,37,-34,3,11,27,50,76,5,-94,-24,38,-33,-33,-77,73,-21,1,-54,-12,-97,-48,-100,-110,-23,-57,-89,-76,-25,12,-35,-2,-28,-23,-40,-13,-29,-2,-49,-20, 
  /* [10][2][][] */ -74,-13,-59,34,61,-89,88,-79,-82,14,18,43,-85,-7,-1,-37,8,-48,7,-105,-66,70,-127,53,6,23,25,-13,-67,-21,63,5,-40,21,-34,-72,25,66,35,-110,-18,-54,1,4,-42,-1,-19,73,-68,33,-60,6,-91,46,5,92,39,-100,51,-13,-100,-61,-33,11, -9,-99,-99,62,20,-13,-10,-114,-36,-34,29,-64,-28,-89,46,-4,-56,-78,-52,-71,-93,-52,-75,-95,38,55,-40,54,-46,-97,-17,-110,7,51,-17,-60,-67,-42,40,-110,-109,14,-99,72,73,7,-20,-101,37,-18,53,30,43,-61,13,-51,64,-57,37,-36,-33,5,-86,-94, -89,-51,17,26,85,-83,-15,-101,-77,-64,-45,-89,-55,3,89,-100,-47,-100,42,-83,-23,21,21,-8,44,54,77,-74,-84,47,-32,-88,60,-12,-50,-80,24,-59,51,-86,-38,-4,-90,-67,-48,38,28,8,-65,19,48,49,-74,90,89,17,-39,81,-3,-33,27,-1,-27,55, 
  /* [11][0][][] */ -24,-11,76,3,-69,25,-28,-55,53,-54,-54,65,29,-39,42,23,21,-127,-43,37,20,54,48,26,-3,-22,37,26,-28,-12,-4,-20,30,5,-27,20,-14,-49,-25,57,7,44,41,10,-10,55,-33,33,32,70,80,15,13,28,43,52,16,51,-66,-66,81,-70,-34,14, -58,-19,4,29,9,-69,-5,-4,-30,-4,-19,49,0,46,1,-72,-27,-57,-47,-20,-34,54,2,-3,10,-70,-67,-33,15,-6,-33,48,36,-54,28,-75,-64,24,-41,-57,10,-60,19,63,-100,13,-53,10,-82,-53,68,13,26,10,25,51,-5,10,-15,-33,-70,-35,-4,-87, -28,-12,79,45,-61,35,-15,17,-36,-92,42,42,-16,-9,50,25,-29,-79,-35,51,-45,2,-42,15,44,-118,27,-30,41,-27,-31,-32,-9,-24,-15,-29,-57,-50,-63,91,-6,-39,-18,-55,42,-43,-9,115,24,63,66,42,33,64,22,81,20,95,-4,-11,74,-80,34,17, 
  /* [11][1][][] */ 43,12,-68,-7,-29,46,63,10,0,-62,0,-46,-13,40,-10,-68,-24,28,-98,19,-104,-78,-40,47,70,-34,44,35,-53,1,-68,-12,42,35,-67,-3,-59,21,8,22,-46,44,-23,17,3,15,42,21,1,-1,-4,20,10,-99,-97,-10,-48,-24,-65,-63,2,-43,-64,45, 36,34,13,-12,36,36,53,25,-37,-69,2,-15,43,-30,29,-53,-36,42,-57,16,-74,-22,3,45,-30,-7,65,57,33,11,33,3,-50,2,-53,-37,56,10,16,-61,-85,-38,-51,16,16,35,35,-6,-76,11,-64,-60,-44,-91,-104,-34,6,-70,0,-52,-41,43,21,6, -29,43,-75,-49,-13,35,-72,53,8,9,-48,-12,40,13,45,53,-10,12,-85,-6,-23,-21,-66,-18,33,-13,59,50,13,-24,2,-59,-28,12,25,12,-30,-26,-23,-46,-70,-31,-32,-53,22,-44,39,-40,17,45,-77,33,31,-74,-106,-21,-61,18,-30,-30,-7,-64,-47,-30, 
  /* [11][2][][] */ 33,-14,85,21,-64,27,-2,19,3,-94,-33,28,23,21,47,-69,-59,-25,-39,35,25,-4,19,-40,-12,-21,27,-37,52,14,-22,-61,32,-5,17,65,-11,-10,84,-24,28,46,-31,-71,-19,-16,-32,-7,-19,23,14,16,-16,-19,-45,-33,7,-30,-41,-59,53,-40,-19,8, -48,31,34,-46,-29,17,25,56,-32,-1,-33,24,-57,-10,0,7,-14,-91,-91,-21,-26,16,-67,-16,-23,-51,20,52,-8,-35,-31,-48,15,-12,-22,50,-21,-6,-56,-59,57,-14,31,9,24,21,28,10,-91,-1,24,19,43,12,12,48,-65,71,-29,-64,-55,-70,5,-12, 40,82,-17,-42,-52,96,-35,2,72,-41,-14,-16,-68,83,82,34,-62,-4,-88,66,-52,19,-17,-24,-64,-3,90,8,18,31,29,-4,-34,44,88,13,67,-43,-17,12,71,67,-3,-30,17,-35,17,-11,36,3,7,52,61,72,-51,-20,-40,19,-35,27,-37,-14,4,-24, 
  /* [12][0][][] */ -21,14,45,-24,32,19,111,71,24,15,14,27,40,11,32,-1,37,50,10,8,17,37,43,-9,3,38,-43,7,21,-15,65,-11,3,-9,-60,14,17,-5,7,15,-15,1,17,40,20,23,60,28,6,-32,24,51,-17,33,-15,29,-7,-7,-39,1,4,29,40,-21, -10,-16,37,-18,17,29,28,4,-9,3,41,0,12,15,6,-57,-8,56,43,6,-34,46,39,33,-45,-2,4,-18,2,30,-20,34,29,24,10,13,12,-28,19,32,-4,-1,39,-38,-25,-28,44,9,-29,-11,-18,22,-11,-42,-14,-7,-17,-7,-20,4,20,-20,-39,-39, -16,-27,9,-55,-8,-45,-75,-18,-13,-36,-13,-15,-17,6,-20,8,-60,44,-22,-15,20,-11,63,-2,-44,-39,41,-22,25,25,22,3,17,0,-15,9,24,10,-16,-40,-4,0,26,5,8,21,-4,21,-34,26,9,-26,12,-6,18,30,2,-25,-7,-9,27,-14,-30,-12, 
  /* [12][1][][] */ -38,-9,9,-13,-10,-39,127,25,6,-15,22,37,-8,-32,24,13,40,-3,-11,-10,-14,12,20,-40,-50,49,51,-44,14,-6,13,-10,0,-6,-2,-36,2,-22,41,-54,-8,36,-2,-19,-20,-30,-15,102,-56,-6,-40,-28,21,-8,35,28,-5,0,-3,4,1,33,-14,83, -46,-18,-30,1,7,22,-1,3,1,8,10,-6,-21,-15,12,21,36,-10,28,11,-54,2,-29,-14,-27,41,12,30,-14,30,-4,-52,26,18,-34,-32,12,11,-5,-59,-4,-21,-14,-6,-36,37,12,28,-25,-43,-6,24,33,32,9,-40,50,-35,-9,33,33,22,-10,-9, 26,-22,41,-24,10,-30,-52,-24,23,-34,18,-10,19,39,-21,7,-20,-11,11,-29,-11,16,6,32,-43,-29,21,20,-35,28,12,44,-34,-17,3,-10,14,3,5,-33,34,-20,3,0,4,1,-19,20,57,34,-25,9,32,1,37,5,-3,-13,4,-6,-9,-20,-43,-22, 
  /* [12][2][][] */ 12,3,25,-46,-20,36,36,10,-53,28,25,-13,-3,-24,5,-5,22,-47,-12,-25,-42,30,-35,31,37,23,17,24,-8,-38,1,-36,23,-33,26,-30,-2,-17,18,6,0,-46,-6,36,-15,18,-26,25,-62,-25,-11,2,31,-54,-16,44,10,-57,31,8,5,26,-16,-7, -28,-29,-28,22,2,-12,-15,-44,-33,-3,14,-19,-25,-14,41,11,36,-28,-37,7,-8,-5,-27,-19,-18,14,-41,30,-27,44,-3,0,-29,-46,-19,-47,-41,-14,-1,-9,6,-24,1,20,-34,0,-40,-12,28,2,0,10,13,-31,-35,-3,51,-47,-39,16,-19,6,-24,-20, 19,37,-45,6,19,-37,-30,54,-15,34,0,-53,2,27,20,-33,-56,19,-26,13,5,-1,8,-9,-34,59,-14,46,-46,32,-16,-73,-12,-55,-15,-15,3,35,-5,30,5,2,-15,16,-16,34,-9,-22,58,-16,-27,19,13,9,18,34,60,-32,3,-17,28,30,-23,-9, 
  /* [13][0][][] */ 19,-14,-45,-42,75,-66,-87,40,23,33,14,16,48,10,17,-33,-42,-28,-28,-48,-47,-13,-67,-31,-100,-76,-30,36,-1,27,-40,70,-37,-21,-21,53,36,10,-46,-60,-16,48,-17,-8,41,35,-33,-37,32,14,22,-7,40,39,-44,-27,9,-13,26,-31,98,-1,-49,3, -28,-25,-35,-60,41,-30,-109,45,-73,48,-20,23,-51,-13,47,-7,-5,51,13,7,-37,65,30,-26,-27,-61,-12,27,-36,103,5,24,0,38,18,10,-7,22,52,51,10,-34,8,22,-42,-1,-10,10,41,49,4,14,-47,22,3,-3,30,31,-26,-37,33,-39,42,-19, 64,-41,-23,-20,105,13,-32,53,47,82,32,16,26,14,23,41,13,23,26,23,-64,2,63,54,102,-46,39,68,11,39,13,71,12,60,-117,28,30,13,-14,8,9,29,93,33,79,-35,72,34,20,32,-51,4,-23,33,-28,-41,15,-45,-55,42,-52,-8,40,-1, 
  /* [13][1][][] */ -56,-30,-22,37,42,-37,-36,-3,18,15,-22,-48,43,-20,-13,5,-28,-33,-24,-50,-39,-1,18,-30,33,-11,-29,-49,-70,-16,-32,-27,-7,49,-9,-49,-36,49,-2,-26,-40,-6,-64,15,24,-11,-27,57,0,12,-63,19,76,20,3,62,47,-56,-37,22,13,-52,-69,18, -54,-9,-2,-26,-50,-22,-15,-49,-75,-99,-40,36,-30,-82,38,52,49,-71,2,28,26,-17,-30,-10,-37,1,-40,-34,7,-32,-31,-23,40,-7,-38,27,11,-6,-27,-51,-63,-56,-34,-54,15,-3,-64,52,-21,-51,-45,-10,-9,13,-5,24,-3,-6,-6,13,34,-10,-67,-63, -7,-5,45,-12,31,56,-57,8,-23,-9,-39,-16,-86,3,15,-6,56,50,80,-8,-34,35,-17,18,-52,-16,14,37,32,19,-31,-30,0,-13,-22,26,9,-60,-53,-12,15,3,-17,-55,84,24,9,78,65,-18,-4,-51,39,0,55,-40,19,39,-44,42,81,18,-7,-46, 
  /* [13][2][][] */ -19,28,-100,40,-33,26,-27,-51,30,11,-8,-96,-127,13,36,7,2,-41,66,-60,67,-27,-84,-15,-85,-18,60,-12,0,-25,-21,22,4,-26,-25,-111,8,-34,35,-69,43,-35,42,-5,-27,-30,-18,-94,-56,-44,-30,61,34,-43,-1,27,24,35,35,-24,59,9,-43,81, -47,-40,-61,13,-22,-61,-31,-20,5,-74,-36,2,-24,-22,-11,-4,53,-7,52,-65,-62,-29,29,-38,50,72,15,-68,1,-21,-62,9,-11,-78,-29,11,2,3,-2,10,-40,2,-41,25,13,14,-36,-68,-43,-21,-7,-41,-52,-19,-30,-27,31,28,52,65,23,17,4,87, 11,26,42,47,-4,1,-37,-18,32,34,37,76,-9,-72,35,45,20,4,76,44,-31,14,-39,14,-46,39,28,-37,-31,-35,9,-4,42,71,-57,-45,10,-66,67,-36,32,6,-57,-69,82,37,28,42,54,35,-20,58,13,-29,8,-35,16,80,-1,19,91,-43,25,23, 
  /* [14][0][][] */ -36,56,-44,-39,-19,26,17,27,-24,34,-40,-16,-34,27,44,31,-51,-44,-45,1,-14,-22,10,-34,17,-12,22,26,36,-32,9,10,-3,28,31,-18,-15,-19,-28,40,42,21,33,18,-21,-24,10,32,40,-3,-9,69,-15,12,1,5,5,42,18,-61,16,-36,-42,22, 15,-6,-40,-40,-41,-38,6,-36,39,21,-29,-69,-19,58,37,-40,-23,-76,-25,53,-45,20,-45,-46,-19,-17,25,32,2,-12,-12,-25,37,43,4,-7,1,-28,28,-24,52,62,-5,-38,-24,-5,-16,-4,-29,26,-1,3,-5,-33,-32,-47,7,10,10,8,13,9,-2,-51, -46,8,-16,42,-42,3,-47,12,-24,-79,-1,4,-7,46,19,-19,7,-84,-34,46,-59,-23,-10,-12,8,-84,-3,-4,-28,-71,-75,-52,-36,-68,45,-30,-43,14,-75,-67,-39,-30,-52,-42,-62,-24,-66,23,-10,-27,70,127,8,-1,37,-20,11,24,-18,-25,18,-76,34,-33, 
  /* [14][1][][] */ -21,0,-6,-8,-34,-17,3,45,47,-29,38,-68,-39,16,3,14,51,-78,-59,51,2,-30,-14,-18,-10,-23,28,5,41,-9,-54,-8,6,-14,23,-22,-7,39,-24,-4,37,40,24,7,27,21,35,7,-2,-9,9,2,33,52,3,15,-13,-13,-4,-33,-69,-8,-38,0, -34,21,4,-60,1,41,2,-1,10,-29,-29,-31,-38,36,53,41,4,-24,18,-31,18,-2,-31,-15,-78,63,14,50,-42,-28,-9,10,-12,5,-10,-22,23,-15,-25,-29,12,-42,13,-19,-18,-30,-20,-10,-15,28,-30,-15,-59,50,-28,-22,-45,-27,10,60,-43,-46,6,-59, 9,36,-42,-89,22,-1,-11,-24,-10,-43,-22,-18,24,-6,16,-19,13,-30,7,-37,-19,16,-14,-43,33,79,-32,30,-16,-22,9,52,9,20,-17,20,-45,-83,-35,-48,-80,-56,38,-7,46,19,-3,42,-61,22,-65,10,13,16,-29,13,-20,-19,-51,35,-27,-36,-3,-22, 
  /* [14][2][][] */ -13,18,-73,-43,-28,1,-11,38,-2,-30,38,-58,-40,33,-12,45,65,-62,19,30,-22,-22,-43,-23,-75,27,43,21,40,19,-25,-11,-39,-9,-32,-43,47,-70,15,40,6,-4,-26,10,13,-17,2,30,42,-4,24,22,-1,-12,38,34,-34,35,16,43,9,-21,37,-58, -29,-40,-71,-7,1,42,-16,44,-4,11,28,-26,-12,29,61,44,25,-55,-11,-4,-21,56,43,27,-3,10,47,38,-16,-57,-35,-67,41,71,42,-34,27,-3,8,-25,-6,1,-3,7,20,-16,3,1,6,-23,29,59,-18,-7,7,-21,-15,36,-30,62,6,-27,-46,6, -72,33,-122,43,-16,37,-97,-59,-30,-52,-37,0,27,-30,15,69,-10,-32,-31,19,-48,-21,-14,7,28,45,-41,-13,1,-24,5,44,7,25,65,-48,-37,-86,-25,-78,64,0,-38,-12,12,-34,-13,27,-4,-12,32,36,17,-43,-10,22,-35,-13,29,51,58,-37,-46,-4, 
  /* [15][0][][] */ 48,14,-11,-34,-21,22,-26,44,16,2,43,-22,-33,-91,70,-22,55,-6,51,-34,74,-12,26,-31,-119,-61,29,33,8,-26,23,-1,2,-64,9,52,-4,21,39,39,-1,-5,62,-11,27,-14,17,-8,17,44,62,-86,-58,-22,72,-7,56,33,47,-53,4,102,71,-3, -36,72,54,16,-81,6,-35,-90,74,53,18,4,17,94,39,40,48,-2,64,63,17,52,-82,-46,-81,58,39,26,52,5,11,43,40,83,-23,-52,19,72,-15,50,104,-28,-44,-40,77,27,25,67,43,47,-36,39,6,23,73,-10,-19,-42,-22,43,40,28,63,-39, 47,8,63,62,7,-26,-11,47,-36,-43,25,35,19,-36,-18,-22,-10,-3,-17,-18,42,-92,-2,22,-116,-61,-52,-60,-18,56,30,48,3,-86,-43,82,-65,24,-25,-53,5,-39,-41,-28,-18,44,53,53,-43,-12,-56,-51,37,20,27,-33,47,33,35,93,114,24,-65,-13, 
  /* [15][1][][] */ 3,-27,54,-19,-49,-8,-15,-12,-56,-48,29,42,-46,-10,-39,-9,-9,57,30,-21,6,-73,23,-14,47,-13,4,17,5,-55,-41,89,-21,37,24,7,-54,9,85,-60,-1,-30,4,-67,26,-56,-10,45,14,-25,5,-68,23,-44,25,-39,18,12,50,-28,-103,-39,-22,-55, -9,67,-44,55,98,51,2,42,-68,23,-39,-28,63,68,82,-53,-2,50,21,8,1,-14,-37,12,-39,-34,-43,16,-36,-39,-70,-3,13,-22,35,-84,-49,26,-8,-57,7,-52,84,-22,-62,5,26,2,-80,39,-9,26,-63,-10,67,-11,-48,-55,-17,-7,-30,3,-20,7, 31,-27,-45,-22,30,-65,22,-21,-80,-30,-32,54,72,-27,-46,-18,-61,26,71,23,-4,-81,42,11,-18,59,-42,6,20,-50,35,57,33,24,-47,70,41,-33,-44,48,-46,-35,-23,11,-46,-10,-27,-12,-127,-77,-78,-90,34,-56,78,-37,5,-36,27,-11,-10,23,-39,29, 
  /* [15][2][][] */ -74,-41,-106,-17,-16,-25,-49,-49,7,-17,-7,2,10,-16,-6,-44,35,-27,-10,17,-15,-28,-52,-6,12,-24,21,-58,33,-88,-54,-68,-45,47,-38,65,22,-3,-16,-40,-26,-9,-104,19,19,50,4,-47,-122,-108,8,-76,27,-10,52,-6,-16,-28,30,56,-42,-4,6,-116, 4,-3,-34,-12,-1,64,0,-33,1,-46,-21,-18,-14,15,31,-39,-42,23,-42,-45,-93,55,-94,-80,-19,-93,-62,71,-42,49,-30,-36,21,-44,-68,-68,-58,7,9,18,21,28,26,68,4,-21,-47,76,-29,-8,-38,12,16,-21,34,-24,-70,-13,15,11,-18,-5,47,-77, 42,68,3,-77,-61,-37,-47,-17,-51,32,-21,118,43,55,-9,6,-33,-2,39,-28,-13,-19,-70,-5,35,-87,-79,67,31,4,8,-56,30,19,-1,-8,-11,1,-77,-20,-58,14,49,10,36,20,25,-62,-31,-68,-13,48,72,-33,21,-80,34,-66,32,-49,-104,48,3,-50, 
  /* [16][0][][] */ -27,31,-19,12,6,22,55,-40,-13,21,-12,2,17,-37,-20,12,62,-36,2,-42,31,14,-12,33,87,-16,21,16,-67,-27,-13,23,17,-51,5,39,26,64,-30,-3,70,-43,12,-22,-4,26,-4,-23,17,32,-13,-20,1,69,-10,55,27,28,32,-41,5,44,-36,22, -14,8,5,80,-3,10,10,1,16,-14,9,9,17,-34,9,48,-13,-13,-11,44,-49,-13,51,21,21,-16,50,54,1,24,-60,0,33,-60,-23,-31,-39,79,-10,-5,60,-19,40,18,-11,-23,30,-21,20,29,29,-26,-2,56,-15,-47,60,-66,-4,-62,-6,30,25,-21, 59,32,-15,47,-19,-19,35,-23,-8,3,25,-10,40,1,-27,-35,-20,31,-7,-37,17,-14,37,32,-17,-83,20,-7,-33,-23,-27,65,-13,3,-56,29,-17,49,13,52,16,-27,56,-6,38,12,2,9,-1,37,-9,-36,51,-61,-5,-37,43,-31,-36,-23,31,23,32,13, 
  /* [16][1][][] */ -23,-37,-42,57,-7,-39,10,-21,-49,-29,15,-55,-36,-31,15,25,34,-19,-75,10,-6,-8,-35,7,-27,-20,48,7,11,38,-42,-17,-3,11,22,9,-9,-1,-52,29,61,42,21,-39,-52,34,10,-81,3,6,70,-8,-58,63,-56,9,15,-28,-22,1,-127,-28,-26,5, 1,5,-23,-5,-23,-17,-9,-5,-7,-32,-5,-59,-14,-59,38,-40,11,-22,-62,24,-62,-14,-6,-25,-39,-37,-6,-28,-33,8,-23,-35,-5,-50,-17,-8,6,-25,-13,-27,44,-14,-18,24,-12,27,17,32,-4,-32,55,39,-44,-22,-7,-21,10,22,-36,-42,35,-34,-29,-44, 26,34,11,-49,12,-23,-20,1,-8,-45,-20,-106,-45,14,6,-50,-46,6,10,-8,-26,-45,-57,-7,-47,-64,-9,23,-14,26,-4,22,-1,23,-20,16,41,11,-17,24,39,34,15,-52,41,9,20,-11,-10,27,-28,31,1,-63,-7,-21,-27,30,-14,-54,9,34,0,-38, 
  /* [16][2][][] */ 37,-34,-2,30,25,-44,-41,-10,-19,29,-14,-39,33,-28,13,-3,22,30,-9,44,5,-3,3,-25,-37,70,23,15,9,13,25,42,-29,-48,34,-24,18,24,7,8,35,24,37,-26,-92,17,-6,-80,21,-14,43,17,18,-1,-39,-27,-27,12,8,-53,-27,-53,26,-40, -12,25,-20,-51,15,-17,13,37,-31,-3,0,15,-24,-83,-30,-16,-11,37,-41,-5,-9,9,5,11,-14,66,-33,1,-23,-2,0,55,-16,-4,7,-21,-21,-47,-33,-12,-25,-6,-44,-17,1,-10,41,-35,-1,8,31,19,8,-57,-40,-50,18,-4,4,-1,75,-8,16,6, -27,-3,8,-72,6,-25,-3,-36,-28,3,-24,-23,-57,64,41,2,16,-26,-32,4,-57,-41,40,-15,-24,12,25,-8,-19,25,-36,45,-18,55,-15,17,30,-34,6,35,7,54,-25,1,58,34,38,31,15,59,-12,34,39,-9,34,27,-22,-21,-14,9,85,4,-47,-41, 
  /* [17][0][][] */ -22,-30,-31,34,-24,-21,-5,-8,-14,-29,23,-26,17,-60,-45,-2,21,-73,-25,21,-21,7,-2,4,10,11,-17,-47,22,-19,-24,2,20,-14,57,9,-47,32,-48,-2,-30,-68,20,-14,-21,-18,-42,-40,-30,42,34,-39,6,66,-5,43,31,21,35,4,-12,-71,21,-26, 8,-27,-31,36,-42,-19,77,-22,4,-23,-33,-46,-19,-7,-30,-15,1,-59,43,16,30,-2,-43,-2,47,16,-34,-1,9,-16,2,-66,8,-57,-44,2,-32,9,-3,-24,33,-1,-72,-28,-39,-33,-8,-35,40,-1,28,-69,-20,65,-45,-28,4,39,-4,15,-53,19,10,29, -7,15,-95,33,24,-40,-32,-8,-10,29,-9,-50,29,10,31,-38,38,-16,9,-34,13,16,-40,30,-4,20,4,24,-14,-47,-12,33,-28,-21,18,20,25,64,11,-38,7,34,25,-53,-19,-9,-23,-32,31,1,-16,8,-18,-38,5,15,8,-40,-28,23,39,-7,-36,29, 
  /* [17][1][][] */ -21,-13,-15,-4,10,17,22,-36,23,-62,-30,-5,44,-43,-37,-11,-18,-73,28,-13,27,16,-15,-10,-14,65,-20,-13,10,-66,10,-13,-8,-15,-25,-58,-25,-46,5,-69,-17,-17,8,18,-16,28,-54,-127,8,-16,13,-28,21,-19,-31,36,-30,28,-2,-47,-55,-4,-12,-25, 12,-25,-37,35,-29,-14,-14,-43,23,-92,3,-42,-56,-27,-40,0,24,-28,0,-5,-6,-11,-5,-5,-32,27,-5,4,22,17,-27,17,-30,29,-31,-16,-17,12,-2,37,-10,5,-10,-42,-50,-26,4,-66,-2,36,-11,-27,-34,-26,-37,-12,-23,27,-12,-35,-57,-35,23,-30, -40,6,-21,30,48,-42,15,62,21,-3,0,-37,-9,-29,-35,-3,-5,34,-43,-6,-22,-40,26,25,-9,-13,33,-5,3,-9,-22,-37,-29,10,24,-12,24,39,26,-9,12,15,2,-29,53,10,-15,-49,4,-28,35,-9,-15,9,-56,-15,15,0,-46,-29,22,-22,0,21, 
  /* [17][2][][] */ -1,-18,29,-5,-16,-10,-13,-37,-32,-9,0,17,55,42,-43,56,8,56,-26,-4,34,12,29,-2,7,-16,61,35,22,6,34,84,-34,27,38,15,-11,-23,29,29,1,-2,36,51,-14,-11,44,12,-53,13,37,-29,16,5,20,6,-19,22,-31,-19,32,10,-25,-8, 36,29,34,0,-29,24,-21,14,12,-25,-19,36,12,3,-58,-19,-8,35,32,32,-34,10,36,10,75,-43,-35,-28,-45,-11,36,14,-35,-21,-34,25,0,22,-19,44,-6,8,-36,-10,7,13,-5,-14,15,14,-27,-59,5,-37,30,-18,-13,-22,-24,-42,-25,11,-6,-16, 23,3,29,-25,-4,-61,33,-4,-31,15,-18,22,15,-20,32,-37,35,55,-32,-1,-15,34,12,-17,36,-3,47,13,3,17,29,61,6,-12,-17,46,16,24,-4,-25,-1,20,6,36,13,-1,-24,73,28,-53,59,-20,16,8,18,61,-51,-11,-15,2,58,-35,6,13, 
  /* [18][0][][] */ -59,55,-13,-3,27,52,45,14,-12,35,19,46,-45,69,5,-10,-51,-24,-34,5,-34,-10,-76,34,127,8,61,61,15,-1,24,-69,-28,28,-12,-9,8,11,-48,25,16,-32,-20,-54,-13,-39,-36,-7,30,-3,-34,34,85,13,-20,44,3,41,-11,-10,105,4,-27,4, 30,64,6,-28,-36,-21,9,44,-4,-14,-21,13,24,-11,6,-33,-28,-9,-33,40,-85,18,-26,18,-3,-5,-63,5,1,11,14,-5,11,-42,-39,-41,48,-25,-20,47,13,25,3,16,-44,20,-52,-60,0,3,-13,58,43,-24,-39,-32,-24,-14,48,-33,-68,-19,-18,-24, -3,-5,10,-24,-33,65,-14,0,-43,-7,-13,82,-38,5,23,11,12,-66,-89,48,-69,28,-88,-4,-10,-117,-8,-16,39,-54,20,10,-2,2,12,-41,1,-46,-39,97,5,17,-32,-6,26,2,10,37,-55,30,37,44,-32,23,-80,-45,-19,-27,16,-54,-61,-30,3,-69, 
  /* [18][1][][] */ -43,44,-51,-51,-7,37,57,26,37,-18,30,-95,-53,-27,15,45,-56,-52,-63,46,-43,-14,-46,-27,48,-25,17,-22,21,14,-45,11,7,-24,8,27,-10,-71,-21,7,-19,31,-43,-25,26,-12,-19,-16,-22,54,46,-16,22,36,-15,42,12,42,11,-44,82,14,-41,36, -6,-40,-27,-73,-14,-14,44,4,9,-29,16,-13,-37,-42,0,5,-26,-24,-12,0,-83,-50,-42,-58,13,-14,-36,18,-8,8,32,-6,30,-40,-56,61,5,-91,23,34,10,-25,-22,21,29,-43,-14,-27,-11,24,-49,16,-36,8,-23,-57,-48,-7,33,-26,36,-25,-29,-56, 12,-16,-24,-50,-24,27,-13,-71,35,-31,26,17,-51,38,-22,-66,-19,-47,-46,-10,-44,8,-42,-16,27,-48,22,-38,28,-41,8,-3,-30,53,11,-53,53,-43,-19,52,-1,-23,-34,0,54,43,69,2,-84,2,8,-1,-17,4,0,2,-14,-12,-11,-10,85,-46,2,-12, 
  /* [18][2][][] */ -42,-26,-36,2,-40,38,37,-3,37,-27,29,-22,-33,-38,-7,-10,-13,11,-65,-8,-5,50,36,-42,-50,71,-34,-10,0,16,-9,-12,12,23,57,-5,16,-49,20,-43,34,-38,-20,-31,-55,-6,36,-27,66,-11,44,68,-3,-7,-17,-73,38,57,31,41,30,-28,-9,13, -22,16,-30,4,3,13,-37,-28,4,-2,26,13,-49,-10,23,-43,1,-45,15,-20,-25,-3,-26,22,29,20,-2,-32,32,-30,25,-10,11,-9,-21,8,26,-86,-10,-7,31,21,-41,42,-21,8,24,-48,-7,-19,-21,14,8,-39,-48,-37,-5,54,-19,-33,62,44,-47,43, 1,2,9,12,22,47,-19,-34,13,-27,28,1,3,5,47,28,8,5,-94,-25,-22,42,2,39,-29,-9,34,4,48,-23,-11,26,30,-2,31,-18,20,-18,36,50,-6,-12,-6,3,55,-17,43,-9,3,6,-15,42,31,-28,19,-5,14,45,24,-5,86,-27,-10,41, 
  /* [19][0][][] */ -38,22,33,31,-1,-5,64,35,10,8,21,-6,-18,52,72,30,-30,-6,16,0,-21,62,15,-32,53,-27,2,38,-7,15,-12,-5,-23,-9,29,20,41,11,-14,-27,2,-14,26,15,-36,2,-24,51,-25,36,43,27,-17,-24,-21,6,13,31,-3,-31,38,-18,7,-4, -10,30,21,-46,-23,-39,16,12,-18,15,14,12,14,25,27,-13,-6,16,33,17,-32,-13,35,-3,-44,-23,-38,7,25,-31,9,13,-16,0,53,8,11,-2,-33,11,37,1,-22,15,-1,6,-24,9,-56,-16,11,-11,-2,-7,-5,-20,45,4,16,-33,-72,-50,21,5, -32,16,23,-57,32,-47,-1,-13,-37,21,-24,41,16,13,34,-5,-2,-6,0,-24,-32,32,21,-13,65,-10,-20,43,3,-36,-42,31,-16,1,36,10,31,-11,-32,-21,16,-29,-7,18,12,27,25,46,-42,-14,-11,-5,-27,-29,-24,-39,61,-42,1,-22,127,-11,10,-40, 
  /* [19][1][][] */ -46,48,-6,35,14,-14,-9,-17,-19,-5,-29,9,-41,-10,22,20,-2,-19,28,-8,2,22,-40,-26,36,33,-43,-15,29,-11,-39,-44,-16,-31,3,-22,-43,-4,-5,11,19,-8,-25,-49,18,4,6,65,25,-19,31,56,6,37,60,26,16,6,-30,-9,-13,-48,-19,-42, -2,19,53,19,11,-10,-17,-39,-1,-21,-31,7,-44,-18,16,29,22,-53,15,-7,-31,-33,-31,7,-53,-3,-48,-21,-24,-21,-37,-16,-8,-11,2,11,0,-15,-3,7,2,-50,4,-63,-1,24,-8,39,-20,-17,-28,46,26,-3,11,3,-28,-5,-28,47,-22,-56,2,-49, -50,-40,-7,21,-30,17,-19,-8,24,-72,-25,-10,-32,39,-19,43,47,-16,-7,18,10,5,-27,-1,23,2,-3,-30,-37,2,-17,-50,23,-9,-19,-7,-2,14,-3,-1,4,-34,-43,-6,-32,-36,6,28,4,13,-28,31,-35,35,-10,39,-2,-28,-19,7,-22,-19,-21,-3, 
  /* [19][2][][] */ -13,-26,-69,28,-3,1,-47,-33,22,8,-19,-56,-30,23,34,25,42,-39,34,-14,18,0,-8,-28,11,26,21,-15,-42,17,-44,-18,13,-30,37,8,-38,1,-33,-27,3,-7,-42,-30,-8,-21,8,-33,24,34,-18,15,15,43,26,-2,-6,-7,-16,37,-37,-21,19,26, -8,-1,-19,28,-31,16,-42,-52,15,6,-32,-9,-25,-57,-23,21,25,-17,47,-36,64,16,9,29,-5,26,-13,3,-19,-11,18,-21,-18,26,25,6,16,-58,32,32,2,-59,-59,-21,6,20,18,-5,38,16,-17,10,6,48,38,6,-21,13,-35,3,-71,13,6,34, -31,-40,-6,48,-9,20,-22,-32,13,26,27,18,-43,-50,29,7,39,5,26,18,30,24,43,-7,11,-13,17,-42,10,0,17,38,-7,1,18,-9,-5,-26,44,6,20,-5,-9,-15,22,29,-11,-9,-8,39,-35,2,16,19,38,4,11,-1,-9,4,-64,30,-26,68, 
  /* [20][0][][] */ 21,-31,75,-24,10,-74,-70,-1,-33,63,43,60,13,13,-46,18,-11,2,15,20,17,-29,-15,7,5,44,-11,-49,-25,-20,-32,42,10,50,22,31,-26,22,62,-65,22,-11,-43,-34,6,15,18,7,-80,-52,8,4,102,25,74,70,-18,8,-62,-29,10,9,-32,9, 47,-55,-36,75,9,29,-38,-2,-54,42,5,-5,-31,65,-26,26,40,-63,-6,12,23,53,-64,-22,21,-5,-18,58,-30,60,38,-56,31,-26,-3,18,-22,27,43,-46,36,-20,53,-20,-62,-39,-13,0,49,-10,-20,-15,-40,40,49,59,-3,8,49,16,-37,11,38,37, 17,2,-7,52,24,-23,6,6,-63,16,27,27,47,18,43,70,-30,-21,57,-16,40,24,-34,5,127,-50,-19,39,49,4,-40,-15,-44,24,11,12,9,22,63,35,59,-6,34,34,-21,22,-27,-15,-32,-2,-8,37,49,-18,45,-36,56,18,44,4,-72,44,2,-17, 
  /* [20][1][][] */ -36,9,8,-7,26,-38,96,-52,-31,-24,-40,-90,-8,-14,-40,-30,38,43,-38,-34,5,-42,40,48,43,-3,-75,-30,-52,23,-36,17,-8,65,7,-47,6,-83,-69,46,-79,-7,1,8,40,-55,-39,53,-43,-85,13,-6,72,-42,31,45,5,23,-15,1,-50,25,-56,-87, -51,27,-2,-9,-56,27,-77,-32,24,-16,21,-44,-1,-24,46,46,-8,-75,4,-12,-36,-42,16,-35,72,-82,-28,-56,40,20,28,-23,23,-24,17,-19,24,-78,-58,-46,40,-9,46,-53,12,-27,-39,4,-1,1,85,30,-7,2,-3,30,-33,47,-28,-29,91,12,9,-63, -37,-17,-57,-35,-17,42,22,-40,21,-16,-21,-11,-30,72,48,31,-10,2,41,24,-58,32,-63,20,-1,-55,15,-8,-60,-25,11,-41,13,-70,7,-119,-59,12,-67,-66,31,-33,10,-15,11,-4,-6,24,25,-14,-6,5,8,49,-17,6,-46,-22,-12,-43,-2,16,36,-99, 
  /* [20][2][][] */ -55,-8,-95,24,-8,-57,-21,4,-15,0,-26,-42,-88,-55,-32,49,-16,-33,52,-48,86,-49,-97,-43,-27,-15,-19,-22,30,-42,43,97,23,-22,-92,-28,-14,-28,-20,-41,-39,-11,-40,-100,57,35,58,-25,34,15,-9,24,-55,0,55,86,-36,39,-12,67,-12,60,-38,23, -26,-52,-38,-47,12,-8,71,-5,-46,-34,-51,-111,-77,-2,-26,-12,-23,53,12,37,-87,8,25,-50,61,-6,2,-11,-59,-1,50,-13,44,19,-60,16,18,-46,-27,18,18,-38,-9,4,13,27,-17,-123,45,71,-5,52,-26,-52,-35,52,-77,19,-15,32,73,-19,-67,32, -18,-36,-36,-55,-73,-10,1,-23,-37,-67,-2,-31,25,-39,9,15,96,23,-9,43,51,-72,19,-2,-1,49,-23,12,-50,-3,-2,13,-34,-35,-4,-59,30,4,36,-4,-1,-24,-29,-25,47,0,-59,11,-42,-10,-54,52,-41,45,0,-30,-13,-11,13,51,9,13,-3,-79, 
  /* [21][0][][] */ -10,84,-60,-37,94,-46,-86,89,-88,32,-37,-9,-82,-30,-12,-88,-41,34,-61,109,-74,-97,-25,0,44,40,89,-69,64,-89,96,24,13,-78,-9,-55,-63,104,31,-77,51,-97,-101,-89,-38,-44,-42,-13,84,-102,96,-2,-31,-9,80,2,-6,-101,90,-85,76,28,-30,-61, 5,66,-1,62,67,-61,57,-71,47,16,58,16,7,40,-27,-42,-8,42,19,43,-43,87,-58,-65,-74,57,-69,-106,45,-44,-100,-126,108,80,12,-102,60,85,-35,-82,-86,8,-32,-10,-65,9,30,39,67,-106,4,12,11,56,17,26,-127,14,-84,-9,42,-47,31,48, -13,-62,2,13,-40,45,32,75,-46,-107,-43,40,-57,15,46,-29,-77,40,-11,-84,47,-48,-4,-8,-9,-73,78,-65,-89,45,-19,-105,76,77,37,-44,-12,13,-36,-65,5,-86,-109,-17,-46,-64,46,-83,-23,-20,-37,1,48,-64,-15,-97,-117,-89,-72,-48,-63,-47,8,-10, 
  /* [21][1][][] */ -53,-45,36,-44,26,-70,-72,-33,79,1,-80,28,-17,-56,39,50,-87,37,-42,19,-113,21,10,-62,41,77,-16,-65,-45,-57,68,69,-1,-9,-85,-43,61,-43,-49,-11,2,-71,-47,-96,33,25,39,-111,52,-10,50,-40,44,48,-82,-62,81,-5,-69,-39,37,-92,-1,15, -38,83,-42,75,2,32,82,61,-83,56,7,-39,11,-44,-1,78,-67,54,-14,-12,30,-50,59,-18,-120,51,-46,-81,-9,-68,-11,-55,93,-82,-112,-106,-19,7,-58,-20,28,85,-19,60,-68,62,-52,81,-24,-110,-65,-63,-50,-21,-96,61,-97,-32,-43,-43,-65,-66,-83,53, -15,-81,-61,70,55,-99,76,-8,-108,61,-105,-54,19,-87,1,72,48,40,-96,-80,65,-31,-111,33,71,77,33,28,-39,81,-9,17,-43,-56,-19,-61,-33,-89,58,11,9,-113,31,30,45,69,36,-14,-56,-114,67,-31,6,54,59,-2,20,-92,-76,-113,-31,15,41,59, 
  /* [21][2][][] */ -33,49,-60,18,-82,-111,52,-111,-47,-22,44,67,64,71,-36,52,-35,-1,84,29,-87,-62,-93,-8,79,44,-68,-34,43,86,-43,49,-66,45,-33,-56,-51,-97,46,-69,-65,-109,39,11,21,85,-42,-55,-1,-21,90,-29,72,-47,108,34,12,3,-65,-113,-31,-31,20,-79, -28,-54,-18,-96,79,67,25,-119,64,-97,49,-69,-70,2,-115,-24,-38,-25,-55,-29,16,-57,6,-79,-100,78,-50,68,-114,-89,-71,84,88,-98,57,-103,-111,4,-25,70,-42,40,77,-117,-120,-13,71,48,83,49,-32,-78,94,-23,28,-19,107,-26,23,60,93,-52,-22,-98, 49,-40,31,-2,-94,57,2,-46,49,56,70,-72,34,-16,-60,-2,-68,30,62,-107,-79,65,65,71,14,59,14,-36,-84,90,-32,1,-84,66,-51,-60,95,65,-16,-1,44,59,-114,50,59,62,32,25,-84,-12,-96,78,59,-88,-54,5,-100,-115,70,52,-63,-100,-82,-87, 
  /* [22][0][][] */ -1,36,-38,57,17,7,-63,54,96,-8,-1,-40,47,-14,57,30,63,-49,60,-54,9,20,-40,22,-22,-27,-53,-44,45,-26,15,96,-27,-16,19,-36,-43,19,21,55,-31,-3,44,-1,58,1,20,86,37,3,-35,5,-7,-35,29,-7,45,62,27,34,-57,30,1,-11, 13,-4,-86,27,4,-30,-47,12,54,-10,37,-22,43,-43,-32,-16,49,45,52,27,17,-48,-21,-20,53,-66,-48,-9,-9,-13,-10,2,-27,46,41,11,-16,-61,9,-36,-15,27,-27,-60,56,25,36,75,-93,-63,14,10,-24,-63,40,33,-52,-21,14,50,18,-42,-4,29, -41,-12,-20,57,69,-32,-39,-55,-21,61,-36,18,5,-45,62,-8,5,-42,-10,-25,25,-28,-51,1,73,-104,-15,34,51,-25,13,-78,41,49,5,-15,44,-74,-46,-70,-42,24,-57,5,-28,-31,-6,15,23,-18,-18,1,-40,14,60,-20,-23,-36,2,-21,-112,19,-50,90, 
  /* [22][1][][] */ 31,44,-87,-70,-31,11,-24,18,-19,2,32,-34,28,-69,-40,34,32,-22,5,19,-13,-40,26,27,-15,-29,-42,-11,-18,-35,10,-34,15,59,-16,14,-7,64,-4,17,-90,23,19,16,15,-12,-23,38,26,-67,-55,-6,16,23,-23,9,-13,-69,21,-64,-80,-33,-36,-31, 28,-9,-76,-8,4,20,18,-64,21,45,45,-32,-38,-62,-89,-18,-16,51,-63,9,-9,44,-42,1,39,17,-23,-11,-37,-12,31,-35,-23,-52,-25,-25,-16,-56,32,46,21,-91,-41,7,10,57,-14,-69,-23,-83,9,17,2,27,12,46,-7,-88,-30,9,-86,-23,22,-40, 34,37,-5,46,-13,63,-7,11,27,-17,32,-27,-28,-32,-10,17,-17,-30,-64,-11,5,9,48,-35,73,16,-2,14,51,68,-12,-1,-31,9,-53,-27,-56,7,-29,-34,14,-24,30,78,-60,-36,9,1,-7,-28,30,41,5,48,-7,-10,-8,-19,-14,39,-15,6,20,-28, 
  /* [22][2][][] */ -8,-3,-86,30,-35,-41,-22,-39,12,-36,50,-49,5,44,6,32,42,-33,29,-30,95,-15,-25,59,-113,16,-79,39,-4,-49,31,26,-22,6,23,-89,36,-66,-7,27,-65,11,17,-23,22,-19,48,-85,-45,-90,-18,3,15,-119,21,13,43,-41,-13,-58,-7,36,-11,-32, 22,-35,-15,58,21,-23,-22,12,2,-26,-3,64,-2,-41,-66,-66,-89,29,-83,-38,24,-58,-11,-9,46,-3,-49,20,-35,-55,17,-70,33,-37,-41,-57,41,-75,-54,-37,-14,16,-33,8,17,11,3,-61,-4,0,-90,20,75,-127,-45,-51,10,17,-15,-60,-40,34,3,27, 18,32,26,-58,60,9,75,-24,0,4,-54,57,12,-20,45,-53,-101,-58,42,-36,-95,16,10,-34,-106,12,-6,32,-58,25,-38,-8,14,-41,-53,-27,29,-24,-40,34,-16,-13,13,13,-28,6,-41,4,-9,29,-42,63,-22,-91,-116,-44,62,20,39,-84,87,-9,-64,119, 
  /* [23][0][][] */ -15,65,105,-22,-32,-20,-13,-23,-28,18,-31,66,20,33,32,-2,11,-48,-59,93,27,24,-75,-6,-50,-13,-37,-10,0,-8,5,-39,27,-115,84,4,-14,70,-49,-46,16,-36,-5,-10,-94,-3,-52,101,25,30,86,99,-76,-42,-8,-7,44,57,-20,-70,3,-65,26,-38, -34,29,51,-15,-10,-3,-41,-9,-63,9,23,5,19,-67,-39,24,-21,26,-25,-22,-20,-9,34,-41,-44,49,-28,-12,5,-13,-26,-18,-23,-69,42,-31,-23,36,-12,-52,-20,-49,-56,-26,-44,29,8,4,13,2,-17,14,-58,9,1,9,-77,44,46,17,27,-47,-15,-30, 6,-8,69,-44,33,-60,-2,54,-33,-19,-28,33,43,-35,21,-29,20,-24,33,-9,30,-43,21,-30,30,-16,-32,-36,-24,-37,-35,-32,-9,31,-91,10,-35,-27,-14,24,-67,-9,2,-18,6,30,13,62,8,30,-40,-26,-15,-59,27,-40,-16,-29,42,-7,21,-33,18,6, 
  /* [23][1][][] */ -15,-10,21,-48,-31,-4,-27,-60,-53,-76,45,1,-55,15,-6,56,46,-7,-63,-29,-20,62,-10,-35,41,35,-23,37,-12,3,-17,16,15,-64,40,26,-67,-12,-99,10,-27,12,-27,-32,12,14,-24,69,35,-20,11,24,-64,22,38,18,15,-9,25,-48,13,-127,-59,13, -70,-11,-23,47,5,-16,-36,-58,1,-28,-10,-16,-35,-29,-17,56,39,-52,17,-56,-33,19,-5,-69,44,69,-2,10,-18,37,-70,-24,33,-22,-33,-53,-49,-42,-29,14,-48,-5,-16,-55,-66,0,-41,-8,-86,-19,-38,-43,-62,18,35,13,-39,-17,-1,-20,76,-75,-41,-2, 33,11,-33,35,4,43,6,35,-19,-51,-37,-10,-46,1,44,5,34,-47,25,-2,41,14,13,7,-5,52,-26,57,-22,33,-1,-21,34,-6,0,64,-45,-8,5,-9,-33,-42,10,53,1,17,-37,41,40,54,-52,-51,45,0,71,44,-30,21,-16,15,51,-7,-24,-2, 
  /* [23][2][][] */ 1,9,-57,71,-1,-45,41,-17,7,13,15,16,31,44,36,-12,43,-72,3,-33,35,-42,-37,35,-34,-7,-15,-5,-7,-69,17,46,49,-46,31,-41,7,-2,-10,-66,57,2,25,1,-41,-51,-18,-71,14,-39,-21,0,21,-49,1,78,37,46,-10,33,46,6,-2,-34, -57,-16,34,76,-9,-44,-13,-34,-9,-59,8,76,23,-51,-15,46,22,-87,40,12,29,43,-95,16,-96,-2,-46,-40,-59,-4,-40,-5,-13,-64,30,-13,-14,-2,21,-36,32,21,-11,-47,-17,-7,-56,-65,-1,14,55,16,42,19,79,13,-36,24,-61,-11,-23,-25,-24,-30, 27,12,-9,47,52,3,-11,54,28,-10,-3,-12,64,-4,32,52,19,-8,22,10,75,70,-17,14,9,-30,-27,44,-26,34,-30,-5,18,-2,65,55,-14,21,11,-49,56,-5,22,-40,-14,-42,5,-51,78,7,63,18,23,45,39,6,43,25,-71,29,-17,37,40,-39, 
  /* [24][0][][] */ 72,-26,-19,27,11,-66,-45,69,97,-20,-26,-20,67,73,-37,-52,-17,-39,50,-16,77,-15,-77,14,31,42,-23,61,53,-15,72,67,29,-9,-76,13,-35,87,-5,-43,34,53,62,24,-24,-27,68,22,1,-58,-51,-63,58,-18,-25,62,-62,0,-29,19,-28,40,1,44, 12,8,17,0,35,79,-80,98,86,-4,-3,28,61,6,-26,12,12,30,46,26,54,58,-15,-1,-107,-85,33,-70,36,-20,53,20,-55,-12,-3,17,14,-36,-7,41,47,50,-21,34,18,32,9,-34,25,22,39,29,35,-6,44,37,-5,26,-14,-61,-34,34,-26,38, -46,34,-56,-29,37,23,-37,-2,-29,1,19,13,-16,27,-22,-70,67,-44,79,-17,60,-12,15,6,8,23,51,-78,42,47,26,27,24,10,13,74,38,59,17,-25,-19,-18,13,32,21,-11,-9,-42,25,-51,78,40,-19,25,2,-42,-26,-50,-7,-7,19,-18,-11,92, 
  /* [24][1][][] */ -76,9,-41,-84,55,-50,21,0,-58,27,-50,-9,6,-85,-45,22,-38,35,38,15,-57,-51,14,-29,34,44,58,-78,-31,-8,31,-92,-50,34,-86,12,27,89,37,-38,-50,11,-77,-94,37,14,54,94,-83,-43,-6,-16,-11,25,-39,-8,-41,-77,8,21,-43,-66,-19,13, 13,35,-60,1,24,-49,-33,-60,87,25,-23,-101,-89,-42,-14,-76,41,-9,4,-20,-73,-7,54,-33,19,9,13,-63,0,22,-54,-119,44,-21,20,-85,-62,28,-33,47,-2,29,-28,-15,46,-33,-59,19,-9,-19,-35,12,-7,48,-37,-16,-40,0,15,-22,-92,-39,31,-47, 1,34,-86,1,4,4,-49,-24,-35,-38,-25,-73,-17,-88,15,-25,64,36,-45,-1,4,21,4,-16,2,25,-43,-6,4,-8,-56,-31,-24,-57,31,-31,-39,85,2,-7,-47,6,-43,-58,-22,20,-36,-5,-38,-46,13,-16,25,91,62,46,22,-5,-28,18,9,21,-8,-40, 
  /* [24][2][][] */ 22,3,18,8,56,-18,98,17,-23,47,48,-34,24,-31,-27,5,1,-58,44,-45,-73,-3,-49,56,93,-51,-24,53,0,-29,-28,-57,-18,-54,-31,-35,-8,-15,-20,-29,-56,-62,-38,-31,-36,32,19,-46,-127,-60,-4,-16,-59,25,6,37,3,-15,40,51,16,62,2,-5, 44,-35,-95,12,22,-25,-40,-62,-71,-52,6,-57,0,-26,2,-26,38,0,48,-45,-57,-47,-19,-23,37,19,-36,34,6,9,28,-116,52,-43,-29,48,7,-65,-25,73,33,-19,-24,-9,-32,33,55,-61,54,-38,-18,-14,-12,6,-41,-31,-39,16,46,21,-65,33,-35,-9, -22,24,-78,-5,0,-19,-10,74,-28,0,-25,-110,75,-3,12,5,22,55,21,-47,-25,5,39,61,3,7,-98,10,-60,-123,18,37,-37,-64,-80,-47,3,26,-16,28,-87,-45,79,-8,-27,-20,-59,-35,1,-67,-77,32,-46,19,21,-12,36,-46,33,53,96,18,11,-56, 
  /* [25][0][][] */ -41,25,4,28,-53,-18,-36,8,32,-56,14,14,24,29,-55,15,11,-12,-22,8,-33,-20,-30,-12,-64,-45,-35,-22,-31,-25,18,12,-29,-28,50,42,-25,-10,-46,10,-23,-24,-12,3,-34,1,5,39,18,1,5,15,-50,-9,-33,4,-32,-7,24,19,15,-53,-18,-42, -17,-3,19,-32,-25,-66,34,-35,10,-64,-32,45,2,11,-8,-11,-21,41,57,-52,18,1,0,-23,-35,25,-42,-27,-9,-17,9,7,-11,-76,-10,5,-31,11,28,8,20,-20,-25,-2,-48,-8,-9,31,-28,1,11,62,-43,-11,7,33,43,7,-1,19,46,3,14,-44, -14,-44,-14,-39,-23,-77,55,-30,19,-31,-11,-11,1,-3,-53,27,36,39,5,-28,62,-32,63,-5,32,29,-23,8,-6,-69,33,-4,-15,-6,-22,60,-25,-31,33,45,-49,24,-38,-53,4,-16,51,66,53,14,-43,-16,18,27,34,51,27,-15,24,40,101,-12,-9,-19, 
  /* [25][1][][] */ -15,-59,-25,43,-36,2,-63,-18,-23,-37,6,-80,-27,5,-36,-37,-17,-20,-43,21,14,-7,12,-2,-29,75,14,32,12,22,-28,-18,25,-23,6,17,-23,-29,-49,14,13,22,-7,-4,-27,-34,21,10,52,63,10,-16,-55,34,-29,12,16,31,-59,-2,-64,-63,-28,-23, -27,-22,-21,38,27,-69,-3,-18,7,-26,-34,-74,9,8,-62,14,41,-16,-3,-56,22,27,33,14,-26,57,-24,24,-42,13,24,-5,-38,-65,-5,-49,-52,-18,7,-66,-30,-10,9,-14,16,16,-12,-2,24,35,-18,5,-2,0,65,30,15,11,-49,-18,17,-29,-35,12, -52,-5,-31,38,25,6,23,30,37,-7,10,-57,3,13,-54,22,48,4,45,-22,5,25,18,-48,27,83,5,-1,-5,3,-17,-7,18,33,-66,-23,-52,2,16,31,5,-6,20,-17,-7,0,34,-18,14,12,-43,12,-12,7,36,67,29,26,-59,60,-26,19,-62,-15, 
  /* [25][2][][] */ 16,-34,-38,11,58,26,94,15,18,40,-25,-3,36,31,-30,0,13,-25,38,-35,-20,0,18,6,3,39,39,47,-7,-29,27,-1,-2,15,27,-26,49,41,34,-2,27,23,17,-33,-1,12,10,-34,14,45,-2,30,-14,6,28,27,21,-7,17,-34,29,45,-14,1, 11,-6,19,26,25,21,-57,-79,1,23,-14,-49,5,-22,-1,-14,-24,-21,59,-25,19,19,-14,-22,-29,64,35,-11,-36,-9,-41,-56,-14,38,25,-48,6,-35,48,-10,22,17,-14,-42,-5,15,-9,-127,2,20,-15,-3,-23,-64,5,25,54,4,-21,-37,10,-16,18,42, -7,1,-11,29,23,-28,29,-33,-38,49,7,-66,-21,-7,15,15,22,-29,-42,3,39,27,-19,-38,22,1,17,22,20,-18,-9,-6,-12,47,23,-18,2,-41,-27,-9,34,15,-16,-57,-46,-13,-36,-75,69,57,27,-24,-36,-23,16,13,-28,30,-34,-34,5,-20,37,-11, 
  /* [26][0][][] */ -46,-55,71,41,-10,-42,9,-5,29,24,-18,21,-32,-68,-40,28,45,-49,44,-18,-32,-63,-33,-53,69,61,19,-90,-44,-55,-54,-4,-53,-16,10,-55,-4,5,6,-45,-60,-62,-87,-55,66,19,15,-127,25,-49,-52,31,41,5,49,-2,-75,-16,-28,35,-23,-14,-57,3, -81,-65,3,-16,-57,-18,-25,-19,-28,-86,16,-24,-21,9,20,-19,49,-37,-27,-81,42,-11,19,-60,64,61,31,-71,-44,56,-13,-61,27,18,-36,6,-65,-19,-39,-93,12,-32,16,-41,-29,-36,-57,-63,-14,-16,-19,1,28,-14,-15,24,20,-43,-39,-11,22,7,-45,-37, 26,-20,-19,73,-60,33,-95,81,44,-2,8,31,-23,10,-29,-11,4,8,68,13,59,-13,-11,41,-29,63,2,-20,14,-41,56,-78,-48,-35,-14,77,-46,65,34,-13,-18,47,67,-38,19,20,13,-98,91,66,30,3,58,43,29,-23,66,23,-12,8,20,1,-4,-49, 
  /* [26][1][][] */ 26,10,-93,-30,25,-19,104,-20,0,44,-9,-39,-7,-29,-39,3,-35,-29,16,-26,66,-28,21,-5,18,-2,-26,-38,14,-39,-43,11,-13,-42,-39,16,-1,-12,27,-35,31,16,21,42,-23,17,47,-2,-18,6,-51,19,35,-38,-3,54,45,-11,35,-8,5,-1,-47,5, 21,-43,-80,81,17,33,-55,-11,18,13,28,-35,-1,26,-29,-34,39,-37,63,-56,-17,17,-41,62,-71,-29,29,-32,-40,34,-56,-35,-5,-52,-24,19,-7,-5,-33,-25,57,-11,54,-2,-44,-22,-38,-37,9,-44,-27,-4,-25,12,13,6,44,-22,30,-44,5,-15,-15,61, 61,3,-51,9,22,4,-31,7,-38,-4,-36,11,-39,-37,30,-27,-70,33,20,-8,44,-18,15,2,-18,-1,26,-18,11,21,-20,13,-36,-24,-59,71,-48,-4,-7,23,63,58,27,32,46,31,34,-39,76,-24,-53,24,2,-21,-48,48,30,-26,-24,-18,48,-6,-5,74, 
  /* [26][2][][] */ -1,-37,-18,-7,-27,-36,27,14,62,-40,-4,-71,47,8,20,-61,-19,23,10,-53,73,35,-18,4,-38,-20,46,17,21,-57,0,48,40,6,30,-24,-11,-30,10,6,38,52,-35,3,-6,10,-20,-23,8,10,52,37,-2,24,-2,-28,8,8,-6,-64,-4,7,1,-73, -34,-6,24,62,-24,25,-47,39,-24,-21,-15,36,24,6,33,14,-11,16,-29,18,2,-31,-68,-33,-30,2,-5,50,-59,-20,9,-10,9,7,-33,-41,36,-28,-71,-4,2,26,28,-1,-15,19,-8,-15,-50,40,11,56,-76,-58,-34,-19,27,39,5,-6,0,5,16,-124, 4,2,59,-29,6,38,-8,0,-35,-12,44,12,-10,-16,-31,33,-9,-2,-49,57,-52,38,-94,-13,87,-9,-1,22,-48,50,32,-26,35,33,62,-41,3,-21,-1,7,-3,16,-38,25,15,24,-61,-7,29,-33,-6,-47,-36,10,3,5,-10,-17,-5,-83,17,53,-5,-107, 
  /* [27][0][][] */ 26,-28,-32,-29,-1,-11,-4,61,3,-25,18,24,-22,44,3,-5,-16,2,24,30,-2,5,-18,0,-57,-62,16,-13,36,27,14,42,-22,14,10,44,-30,9,-3,31,28,23,-5,45,-33,12,33,9,48,-13,-11,-11,27,-17,28,-5,7,16,24,-52,-16,9,-4,3, 22,29,-15,34,2,-2,-4,33,8,-7,-6,-30,28,71,20,2,-25,40,9,-2,34,7,29,30,38,-14,-26,20,25,12,22,13,-7,40,-50,-19,-26,23,-3,57,16,6,39,5,-28,11,40,41,-25,-12,4,-30,-8,22,3,15,-8,-8,-11,23,3,6,3,-43, -7,20,-4,-2,-5,-22,-38,-23,-57,24,-23,6,23,6,10,-28,16,15,-11,14,-23,-5,24,-11,-10,22,-27,-4,32,31,25,-18,-8,-12,-37,-2,18,36,9,-35,-31,-30,38,-23,-9,18,-26,0,-29,-48,-35,22,-13,-30,-21,-14,-5,-27,-35,3,47,38,27,11, 
  /* [27][1][][] */ -42,-10,-28,-12,-35,-23,-20,-11,-7,18,13,29,8,-30,16,22,12,-37,-1,22,-42,-7,-56,-21,-53,-4,8,-45,-21,35,35,16,-33,-21,5,-10,17,-41,0,-23,15,10,-11,-6,38,13,-24,40,1,-22,-14,-11,11,-21,17,-17,0,-7,-3,23,-3,1,-30,-32, -31,23,-3,-9,4,-6,39,-21,29,16,-31,16,-12,16,45,30,5,24,-18,0,7,-31,-63,12,-39,-14,22,34,22,6,-25,-5,10,43,-56,-28,34,-6,-16,-23,4,-6,-2,-19,28,-25,38,39,-1,38,16,22,-23,-9,-21,-40,14,-12,-14,27,10,37,24,-63, 24,-27,-4,-19,10,-31,-36,-41,-37,-33,-7,23,-16,23,13,25,23,-10,14,-6,35,-34,-5,-21,-47,-21,6,-35,21,5,28,-72,5,-11,-11,17,-7,-19,-52,-44,-42,-41,-17,-20,27,-36,-2,10,-91,-71,-50,-14,-50,-30,34,15,-24,-31,7,31,92,47,-25,-63, 
  /* [27][2][][] */ 30,-38,-69,-51,5,-9,25,-8,-8,1,-14,-35,-18,5,1,5,28,-9,-25,4,-15,-53,-14,31,-16,41,22,-44,-13,-31,22,47,-27,-29,32,23,-12,-47,-18,12,-7,-17,25,4,48,-7,-18,6,8,-54,-19,19,-33,-19,14,30,-5,33,10,2,-15,-20,18,27, 0,-33,-21,-14,-54,-24,42,-27,-47,-8,10,8,-67,3,25,11,11,-12,3,30,-29,-52,22,-24,-26,-5,-12,-24,40,-31,10,-30,8,-13,-42,-13,3,-35,-13,32,-26,0,-1,-34,56,6,-17,24,-11,3,-13,14,-24,-31,43,11,-42,-14,8,42,36,-24,-10,-1, -35,-42,26,-43,6,25,-25,-28,-59,-5,1,14,-35,9,-28,-13,-4,1,-18,-35,-18,-12,-29,-20,-70,-40,-23,18,27,-8,-3,-13,5,25,-69,-28,-20,-7,-10,14,-16,-48,14,-22,-15,29,25,-29,-31,-22,-33,-45,-51,13,-35,10,-49,-33,36,9,127,-1,25,-6, 
  /* [28][0][][] */ 15,-15,-47,-3,-31,-13,34,29,2,49,2,24,0,-26,-21,-59,-30,23,-34,-9,-48,-11,31,42,12,6,26,5,-18,26,24,1,-32,47,-39,27,-12,-15,66,38,39,-12,65,8,40,2,46,14,27,6,3,-11,-21,-68,-35,10,52,-25,-46,-42,9,31,-20,-14, 26,3,-31,-53,17,-32,-8,31,31,58,-17,2,0,20,-18,-45,3,41,8,21,33,-34,31,43,55,-41,-9,5,-8,-22,18,-10,-2,-6,27,-14,22,41,57,29,-27,4,3,44,-10,37,-19,2,-15,-61,29,4,7,2,-4,-22,-2,-8,-32,-68,93,-18,20,23, -21,-14,13,3,11,22,-10,-27,-47,22,-4,-46,-14,7,-3,25,-66,-16,-7,44,15,22,23,46,-19,-127,5,50,30,56,-16,13,15,15,36,-30,-3,1,-30,-7,23,0,38,-43,32,3,37,19,-7,7,51,-18,13,6,5,-4,-21,46,20,-45,-39,-1,13,18, 
  /* [28][1][][] */ 14,28,-25,-28,-24,7,14,-12,-18,-70,-35,-11,6,-26,9,18,-51,-30,27,14,-9,-72,-60,2,-61,-13,-20,9,6,-23,17,23,17,-19,-57,74,0,38,16,17,-31,1,19,-36,5,12,-48,80,-5,-48,-47,-28,7,-48,-20,-16,-7,-34,24,-30,15,19,8,-5, -17,0,36,-56,18,-7,77,9,-39,-30,-8,-45,-29,33,-24,31,26,6,-24,-25,23,16,-5,-10,-2,-28,58,-15,3,33,26,-38,16,43,-24,22,-13,-1,29,-14,-2,-23,-59,-13,7,-4,31,65,8,-14,-31,-1,0,-1,24,25,10,23,46,13,36,-47,-23,-17, -42,2,15,33,32,-6,-9,37,-33,2,4,23,-29,2,-3,-32,-9,-22,-33,47,-28,-2,-59,-57,2,-72,1,-32,18,35,-16,-68,19,27,48,-35,44,18,-5,-9,16,29,-9,-7,-2,10,-39,38,10,24,25,-37,1,47,8,7,-3,43,-15,7,-35,24,3,-56, 
  /* [28][2][][] */ 19,-18,-54,-20,25,-33,60,14,14,5,-22,-62,-59,-45,11,32,-42,-37,-40,20,-20,30,15,-1,16,-10,-14,-6,2,18,2,-14,-17,27,22,3,-1,0,-19,-11,-35,-61,-44,-16,22,-21,-7,-86,-2,4,11,-15,19,-54,16,30,30,23,-10,-44,40,8,-42,-16, 18,-28,-101,-4,9,-26,94,-60,-12,-15,-4,11,-93,-42,-2,7,-22,22,-61,34,2,-44,-26,-39,16,-5,-40,23,-4,-24,-46,-59,23,1,20,-24,33,-23,-59,1,9,-15,-52,31,-22,-29,-10,-72,-40,-15,-2,-30,32,16,-29,-13,-15,20,23,-3,9,2,-2,5, 9,1,-8,-32,-40,16,-14,-4,-11,37,34,3,29,-48,13,27,20,9,28,-12,19,-28,16,0,-5,17,-38,48,18,-91,-16,12,-14,27,1,-4,-20,-18,-10,-5,48,-37,15,18,50,40,49,12,-32,-2,-15,33,-17,-12,-3,-50,24,-10,4,40,3,37,27,33, 
  /* [29][0][][] */ -23,-68,9,-29,5,14,59,36,-38,-20,31,-9,26,37,21,-55,25,31,55,18,53,-18,-22,37,-79,52,-5,1,14,-19,4,93,-10,15,-40,37,-55,21,38,3,-1,6,-32,-10,-8,31,-24,78,6,-35,0,68,38,-8,40,27,6,18,-12,78,6,53,44,-13, 0,-71,35,31,-47,-51,11,31,-28,4,-2,72,-32,-61,3,-10,-35,-14,39,28,-18,0,19,-29,42,-7,-32,1,-29,53,6,35,-37,48,-51,12,-53,-22,-18,-61,-30,-28,-31,18,-71,21,-26,-7,-51,2,-3,-71,5,-71,-8,55,-30,-75,-7,-13,16,8,-17,40, 38,17,49,-22,-8,-89,62,64,15,49,27,-21,18,59,-103,-39,-5,44,34,-54,-2,-4,38,23,58,-25,-9,-13,-43,42,22,37,-25,-29,23,34,36,51,4,13,-16,54,49,-5,-53,25,-15,-23,61,-13,8,-33,5,-83,-19,-29,42,-38,-33,36,127,-9,-27,13, 
  /* [29][1][][] */ -44,-49,35,28,-47,-19,4,26,-16,-16,-29,-46,4,81,20,-9,16,32,-47,5,0,-18,-71,-7,-94,-7,-19,-12,28,11,34,-40,69,30,8,4,-7,-7,-18,-17,69,-13,-3,8,11,39,-66,20,41,-12,-25,38,29,-4,-2,6,7,-2,-58,-7,-3,-50,-1,-63, -10,19,6,-80,-35,4,28,3,-54,-8,-44,4,-56,-4,30,42,-10,-33,-45,-38,-74,-17,-24,-11,54,56,-29,-57,-62,37,20,-1,-17,-56,65,-24,-3,-9,-2,-7,-32,-61,-68,-3,-12,-29,-10,90,-63,-13,29,-2,-57,-39,-3,6,2,-45,-42,52,24,-22,-22,15, -100,-69,-6,-41,-21,-11,34,-12,-115,5,-47,-70,2,-2,-95,42,-16,-45,12,-61,10,5,-13,-54,-22,76,17,-55,-70,7,-24,-53,29,-89,65,-6,-1,-51,-47,-51,-27,-63,-90,-13,-35,-1,-63,39,-31,-14,6,-45,-43,47,66,29,26,-28,-3,35,46,-14,-61,27, 
  /* [29][2][][] */ -17,5,50,-84,-43,30,67,-21,-61,-75,-11,70,-108,70,-5,-4,54,-27,-59,-23,-21,-57,-60,13,-17,22,22,-65,15,-29,-23,-42,-30,32,32,-29,-30,-110,-35,-43,20,-28,-53,9,65,42,-12,24,45,17,56,24,-50,13,52,-23,-106,-4,72,21,-50,-16,22,-71, 9,-42,39,-36,-26,49,52,-33,-35,-12,27,110,-6,30,-5,56,114,-9,38,0,31,-47,-41,-28,42,44,-10,-73,-61,-18,-28,18,15,-26,37,31,3,-78,-26,-59,-48,-48,19,-40,17,-39,-14,41,-30,14,39,23,-2,45,1,11,-16,40,11,96,26,29,22,-70, -68,-39,14,59,-1,-46,85,4,-31,-48,33,6,-8,-78,-50,50,81,34,48,-63,-21,-52,-6,-72,46,110,-100,-105,-51,48,44,-1,-26,-39,-37,-6,-77,-93,-65,-76,-49,24,-53,21,-6,-43,-15,84,-56,-3,-7,7,-10,30,12,26,-64,-59,15,18,90,25,-47,37, 
  /* [30][0][][] */ 8,32,-63,23,19,-38,90,-42,-30,19,16,-65,75,-6,-59,40,3,-39,13,-17,29,8,31,-16,20,-50,12,8,-24,18,-25,42,-17,45,22,8,9,25,30,-44,11,-22,38,11,24,2,23,6,-59,-62,0,-28,68,60,-10,-4,-48,-40,50,-8,56,28,-40,92, -31,3,-118,69,-24,28,13,-10,-27,-21,42,-83,71,-21,-10,-31,-14,11,21,-26,6,-12,-5,23,-15,-12,-25,37,-1,-14,-34,-47,41,-44,-7,-10,23,45,-51,-34,27,-39,39,55,-116,-11,-44,-63,-62,-19,10,-8,39,-1,-12,-28,6,-35,61,2,-5,-48,-26,71, -10,22,-77,55,-53,-69,26,74,63,67,-4,-35,87,-26,14,-89,30,-21,16,-8,101,-1,53,36,-23,62,-42,42,-26,4,-15,20,6,-29,29,22,-53,68,-30,-45,-18,34,65,54,-65,3,18,-11,42,-58,39,23,-15,-8,6,-72,56,-36,-20,-28,-94,39,-4,119, 
  /* [30][1][][] */ 53,16,-69,40,-47,-2,51,-10,-56,43,-11,-70,3,-15,37,37,14,-29,-9,-1,4,-7,-50,25,17,41,-46,22,-27,42,-10,4,36,20,15,4,53,22,0,-87,-52,-43,53,3,-31,31,-52,-26,-59,5,22,-4,-41,17,38,6,-43,18,53,44,-32,-22,26,-9, 8,-28,23,22,-21,8,-11,-11,-42,14,21,-16,-31,5,-27,31,17,-11,-39,6,25,34,-48,26,-65,-2,-65,17,-36,45,-43,-27,46,-12,-24,32,-24,-37,40,-53,-20,-9,-31,-7,-80,-22,24,-70,-8,-22,-50,-51,-41,-45,-45,-82,26,-11,4,-49,-127,4,13,30, 49,-58,-46,13,7,-14,-23,43,-25,-47,40,1,24,15,3,-28,-73,-2,69,-32,-25,0,-41,-8,-59,-41,-5,-50,41,55,17,-27,0,-34,11,43,-26,8,9,-74,-47,61,66,-51,-8,14,49,29,65,-38,-11,-45,-27,-126,0,-23,-2,-79,1,-89,-61,37,-25,59, 
  /* [30][2][][] */ -67,12,93,26,67,-19,5,-35,-53,-41,21,74,-5,-49,0,31,46,31,-48,-39,-30,1,6,-18,-5,77,47,-55,-29,24,53,2,37,-25,69,53,39,57,-18,-45,45,-28,-60,37,33,-24,-2,16,-15,23,76,1,-14,25,40,5,30,50,33,79,-6,-4,-33,18, 17,45,17,58,33,4,42,12,-15,-59,41,62,13,-68,0,47,-11,-19,23,51,-2,10,-26,-48,48,-30,-15,7,-40,-49,-50,-62,-26,-20,-5,-8,-46,-4,9,-39,75,15,19,-31,-71,30,16,18,67,98,-11,-18,-52,82,-65,-45,53,-26,-18,28,17,6,-15,-59, -28,26,100,-29,56,-4,22,-23,-40,-12,-37,13,37,-30,3,-57,-37,-29,9,0,47,-6,-13,15,31,5,-13,2,-44,32,-20,-3,-33,-70,-33,75,-34,20,38,-28,32,66,27,27,-52,35,-21,15,42,-15,42,-11,29,-13,61,20,70,14,-20,-20,-30,11,24,-30, 
  /* [31][0][][] */ 6,-37,45,22,-8,15,16,-36,-29,-68,-17,6,-38,26,-20,52,8,-31,24,-22,-18,10,-30,-34,62,16,15,43,-37,8,-25,-58,29,-51,10,-31,-54,-5,-26,-37,-49,-60,-31,-11,-49,11,-17,-7,30,23,-45,38,22,1,-25,21,-11,-18,-36,7,-11,-50,-29,3, -12,31,61,-11,-26,10,1,11,-55,-33,-9,22,37,24,20,-11,11,16,18,0,10,-20,-63,-17,5,83,43,-18,-23,-14,23,29,-38,30,-59,-35,-59,31,3,25,-2,-7,18,-10,-71,9,15,-11,60,64,-17,23,-9,-3,-4,39,-5,0,-8,-18,-24,-21,-64,-29, -11,28,17,87,-44,-5,-4,22,47,-25,23,42,11,-26,5,31,-32,24,23,-34,8,-15,30,-24,-10,127,96,-43,46,-3,-8,9,-7,29,-6,-9,-8,-8,1,45,-16,5,-38,-39,-22,27,24,-34,37,7,-30,23,-11,7,-11,-22,-3,15,-1,32,66,23,-29,-16, 
  /* [31][1][][] */ -22,-26,-12,36,1,23,13,-20,-2,-16,13,-59,3,10,57,49,45,-15,57,25,3,10,13,24,-6,27,14,-40,34,11,33,-12,26,-1,-18,35,-6,35,61,-15,19,35,16,-11,53,35,-3,-32,46,-18,1,-13,13,7,30,-32,33,36,30,50,6,-15,28,-20, 27,-27,-41,-11,-29,3,-58,-18,-22,38,-20,-6,-41,-5,2,7,26,7,19,42,-4,-26,-39,31,-65,-1,-55,22,1,16,-28,15,-29,-31,-31,-34,-24,-8,-2,-62,-11,-40,-2,-46,-25,15,-54,-1,0,8,50,26,-7,19,20,-22,24,-28,-26,-25,-14,15,12,42, -17,-27,-47,47,-11,14,-20,0,29,26,5,-34,16,23,26,-57,30,-2,10,2,-19,-29,-15,0,-15,-25,-50,21,55,-29,-41,29,-27,0,38,-14,19,1,-14,-54,50,29,-6,7,7,10,-9,-26,-29,-63,2,25,-41,-35,15,-70,37,-31,19,34,2,25,51,8, 
  /* [31][2][][] */ 39,32,2,21,-13,16,-19,-16,25,-9,37,-33,-46,32,-28,-30,31,25,-21,8,-32,-32,39,-15,-10,-58,19,-16,21,11,19,60,29,-5,-39,22,-42,-25,-29,-11,9,31,-7,-23,42,6,7,37,-2,-40,51,-16,-42,-7,8,18,-22,-38,-32,39,-44,-1,2,1, 10,-8,-16,12,4,-21,-6,27,-33,-32,9,-48,-28,9,7,-67,2,19,-64,-29,-80,-22,40,-46,5,9,-33,24,-36,23,29,-22,-29,-27,5,3,-33,56,-8,6,11,13,-43,31,8,11,23,-35,-13,-94,16,-60,-19,15,-45,-45,19,6,-24,-42,-52,-16,54,-25, -15,34,49,-7,-2,31,-8,11,-75,30,-26,-9,21,-13,2,-59,10,-4,-38,20,-9,-14,19,18,68,27,-14,48,-5,-12,-27,38,24,14,-63,60,-39,4,36,-3,-31,-48,2,-17,-24,-35,-9,12,-53,-20,-36,27,21,-60,34,-5,-10,-69,25,30,30,50,-22,2, 
  /* [32][0][][] */ 17,-36,24,-49,-38,37,16,-17,21,5,6,28,-59,3,68,-16,6,-10,-78,-12,-34,-9,48,-7,-85,-50,-9,-42,-19,53,-39,6,-16,35,49,-34,42,-13,-8,38,39,28,-74,-42,-7,-39,-56,24,43,37,31,-3,-24,42,17,-20,-32,-9,14,-5,53,-27,9,94, 15,-21,85,-88,-49,6,-57,16,-55,20,-14,29,12,-55,-14,-15,-29,-41,-14,-11,4,-47,24,-76,-126,-56,-27,-34,46,-3,-25,-40,-21,-72,-5,-8,-23,-12,-7,-36,13,23,-35,-56,-49,4,27,9,4,4,48,-87,-52,-19,-22,-75,-42,-5,-46,6,65,4,1,-39, -52,-57,21,-54,-14,-6,5,-17,40,12,-26,-3,-43,-68,28,-29,-15,-38,-10,41,18,-46,-80,-46,-96,-45,-29,-93,8,-13,-64,-8,39,44,22,-3,-23,-105,-62,-26,27,2,-76,-68,-3,47,-26,-4,-84,-47,52,-56,-62,-24,-16,-7,-27,-15,-57,13,-127,6,-37,39, 
  /* [32][1][][] */ -18,37,7,-58,27,12,8,-21,-51,-32,-9,-32,60,-28,34,3,-23,9,34,-35,-9,29,-8,9,-16,-8,-30,-50,8,-30,36,-13,40,-61,28,51,48,-58,12,-50,42,-36,31,4,11,16,23,-33,27,-59,-40,-22,11,-48,21,-58,-31,-40,4,-56,-34,-38,17,-35, -58,-11,-33,14,-57,-12,-39,-7,-12,-1,23,-28,-19,-61,-7,34,-70,-36,-26,-54,-38,26,-11,-54,-59,-47,29,-69,54,29,-37,-29,8,-24,-19,15,-10,2,7,-29,31,29,-19,-91,-14,52,-58,1,-5,43,41,-83,-59,9,-85,-1,27,29,8,-94,-18,14,-47,-56, -36,1,25,23,39,41,67,12,50,-23,31,9,-9,19,-28,-1,11,-7,26,-14,-25,-19,-11,17,-35,-89,-31,-37,19,13,7,41,-29,58,-18,34,0,-27,-60,2,-47,57,18,-31,36,24,44,65,18,-21,-32,-54,35,-2,-8,21,-6,23,-43,-77,7,23,1,-2, 
  /* [32][2][][] */ 24,-39,121,30,-13,16,37,61,14,54,0,120,79,-13,3,-40,-23,20,90,3,33,-19,40,65,-2,-9,-36,-17,-7,24,24,9,4,35,-26,-9,1,66,12,-4,-13,50,21,54,4,16,70,1,-15,-21,8,-7,-12,-26,36,30,-34,-49,22,-38,0,-1,-48,-19, 20,1,56,-31,0,20,-37,-1,-1,7,4,90,37,-83,-68,-71,38,30,10,-38,-25,-14,12,35,-7,25,-5,-22,2,-19,48,45,-32,-17,10,39,-39,52,5,52,-66,-25,-39,-7,59,-32,-2,83,-9,9,33,-49,-1,19,-47,21,-55,11,-16,-32,21,-30,32,-4, 47,-12,39,20,-3,53,17,51,39,40,55,51,6,48,-31,5,65,25,44,69,35,37,-12,31,-31,-62,52,63,45,98,42,46,-46,68,-60,4,1,12,34,-20,40,-30,11,27,35,-5,32,21,29,58,23,-59,21,54,-96,37,29,22,60,-53,-61,33,-33,-1, 
  /* [33][0][][] */ -13,-1,-29,13,46,30,-21,9,-20,-42,10,18,3,-11,25,-49,-67,-28,-32,6,-6,17,-38,41,17,-76,-83,65,7,-32,52,-72,-26,-51,-42,4,-10,10,-41,-6,9,-35,-42,-38,51,-5,18,94,-51,-52,16,-1,-61,-69,18,-9,22,22,36,-5,-12,6,15,-43, -24,24,67,-49,21,-23,-24,57,25,7,20,38,-22,-12,-41,27,-7,38,-39,-33,-23,-43,-50,-59,-35,-69,-15,16,59,23,10,-40,-34,-6,9,35,35,-9,25,20,-69,-34,-17,-41,-13,-23,3,26,-17,-12,16,9,11,-30,27,15,-35,31,29,-21,-104,29,-29,40, -7,8,14,2,23,-1,5,64,-53,-36,-40,44,15,-59,-7,-11,-5,1,-12,28,36,41,-96,-64,14,-20,-35,30,-20,37,13,-25,-6,0,25,-17,40,-9,-17,-48,-26,-20,-57,-14,-9,20,28,53,-52,-57,44,-74,-26,-3,-12,42,9,27,12,-23,-115,34,40,-15, 
  /* [33][1][][] */ 21,-27,-71,-62,-13,21,-9,-48,49,1,17,-29,-46,-36,9,21,-12,10,-67,-39,27,-5,18,28,-45,-54,-40,5,50,-19,-38,-45,16,-41,-61,31,15,15,-60,23,-55,-48,5,-16,25,27,29,-45,38,-93,-63,-17,26,-14,-52,-46,-24,2,-40,-41,-31,-38,7,-36, 24,10,-11,19,-8,7,37,-18,41,26,36,42,-24,-64,25,36,4,14,17,32,52,-18,19,-3,42,34,-13,12,17,24,-7,-2,26,-43,-1,37,24,-3,13,5,-40,-18,-49,6,17,31,-13,-42,25,-23,-28,-12,20,27,-28,-2,-8,9,-32,4,-53,-29,-3,-1, 28,26,25,-26,41,-39,72,38,16,35,-1,-9,3,-74,-37,-24,29,-30,-24,-22,-21,23,28,-7,52,6,-31,-14,16,-3,22,-32,-7,-34,29,-58,21,-23,-33,-35,23,-42,-17,8,-31,-27,-3,40,5,-22,55,9,-18,54,-28,7,26,-42,22,10,6,33,-32,-21, 
  /* [33][2][][] */ -3,7,-20,-35,-68,-35,74,-55,-17,-52,11,14,-10,23,-23,-45,-9,-65,-58,-35,-66,-26,41,-44,-37,18,-37,19,15,-35,-20,-1,26,-14,2,4,-9,22,-34,-23,-28,6,-54,6,-35,42,-70,-44,44,13,2,-27,-11,28,-1,-3,-34,-3,5,-50,-11,-79,-39,-24, 30,23,-97,34,-50,45,-98,21,22,-17,27,-62,-88,-8,-23,-13,16,-23,-8,47,-23,-22,22,-47,-7,13,-5,-30,41,51,14,10,-14,8,4,18,-14,-39,-18,36,19,17,-43,-44,68,-32,-11,-32,76,2,24,6,-35,13,25,-7,23,-18,14,-7,-22,18,-59,-14, -6,-3,-127,-32,-23,-5,-61,10,-23,6,-17,-7,32,20,16,-49,-21,4,-21,12,-33,-4,-27,-67,-84,11,16,-23,21,24,18,-77,4,-11,-43,-52,-5,6,-13,-66,-15,27,-29,-64,-18,40,-13,-18,-96,-21,37,-16,-52,-4,36,-93,-10,-9,-38,29,-48,-51,9,-47, 
  /* [34][0][][] */ -12,40,46,11,17,12,14,26,-59,-12,-41,26,-39,39,-1,-15,-43,-65,44,5,-20,-45,-44,-57,127,37,-13,-3,26,-51,11,21,26,35,-3,-30,-14,-44,21,27,-28,-52,4,-54,24,-22,-15,-6,24,41,34,14,-54,-20,-20,14,47,-22,-9,-18,116,26,43,-92, -43,-60,11,-72,35,12,63,-36,-6,-40,-7,67,34,36,-36,-14,-58,-14,-58,-9,-26,-3,-25,-15,-46,5,3,-2,-9,-10,-28,29,9,12,9,29,50,-61,-72,46,33,-28,-72,-42,27,-31,-45,39,-66,-5,48,28,26,-33,0,-53,-64,-68,-27,45,83,-17,-23,-57, 40,58,56,-1,-45,1,55,11,-13,1,-11,-14,-43,83,83,0,-43,-66,-67,-5,-46,33,-9,1,-36,16,42,43,9,-40,-40,79,32,24,-6,-39,26,87,-75,-28,28,-24,38,-6,-6,-39,-8,7,46,49,54,39,-31,17,-60,-23,-6,-37,21,-21,35,8,30,27, 
  /* [34][1][][] */ -54,31,52,68,-21,-55,108,-22,-31,-29,-44,51,-4,-17,58,-32,-8,-27,4,7,-30,-4,-24,8,-41,-23,-3,36,29,-21,-61,-19,-23,-29,-29,-10,26,42,-19,-58,41,-60,33,48,-53,-12,-13,-45,-31,-64,-15,38,-40,64,-9,22,-17,7,18,53,34,-54,-47,-18, 17,38,28,-31,8,-53,1,-18,-6,13,46,26,-26,-21,-60,-26,-90,-15,-59,-9,-66,-82,-1,-37,-9,-71,-29,-57,-20,-11,7,-89,-40,-43,-37,6,10,-4,19,-43,-3,-34,-51,-72,-44,17,-38,-8,-15,-71,-5,-28,-11,-38,-98,-37,-74,-53,-36,6,18,-50,-1,-24, 21,0,-16,-31,-9,22,-34,-17,-62,30,-9,45,-59,-3,17,14,32,-30,-68,50,-87,0,-17,-12,-17,-21,-50,41,25,-5,8,39,-24,-47,19,21,27,53,-57,27,-43,9,20,-40,10,-20,-16,43,-43,-44,35,28,-4,-4,-15,-41,34,44,-48,-59,88,-9,-12,1, 
  /* [34][2][][] */ -19,-33,-84,68,-3,-84,84,40,-17,-54,-2,-37,76,43,37,-17,-32,-14,44,6,18,-2,-53,28,37,11,-65,41,-65,2,53,17,46,-38,-48,89,28,27,-49,-8,-26,20,76,-13,9,54,-44,80,74,-13,-25,65,34,23,70,17,43,15,-48,36,-56,-21,-3,-27, -35,-59,-17,-29,-41,13,-17,4,-39,1,-3,35,11,-22,21,1,8,-6,13,-32,9,-54,-20,15,-65,2,-42,-89,-39,-37,28,35,14,-35,-47,14,28,-60,22,-15,-37,13,0,-24,39,21,-52,37,-44,-16,-90,45,49,-27,70,7,-91,-29,-42,18,13,37,20,-51, -76,33,15,-39,-24,15,-29,-2,-29,-76,8,78,35,58,-8,-58,57,-28,-14,29,14,-25,25,-62,-30,-63,25,-45,-8,-30,-43,-8,-1,25,11,55,-59,30,-9,55,-78,-36,22,24,-11,52,-22,11,-94,-61,-4,24,60,15,33,-37,-17,-21,-64,-7,11,-79,-1,15, 
  /* [35][0][][] */ -56,-39,-73,-31,-33,-42,-39,-47,-20,31,10,8,9,-29,20,1,35,20,-56,-14,-23,-36,15,-9,5,23,-30,2,-49,58,-52,-8,20,-52,25,26,-44,2,21,4,-38,-63,-34,13,-25,1,15,-29,44,-20,2,-7,-48,-14,-26,-17,12,33,12,16,56,-24,4,57, -46,24,5,-62,-73,-31,9,-44,-55,23,-30,-7,-45,-50,21,-5,4,-39,-51,-31,39,21,51,-41,20,-21,-12,-10,0,-39,-71,31,27,32,13,-3,-45,-22,-19,-21,-40,-31,-63,-44,-15,3,5,-15,-38,-62,-17,-46,-66,45,-59,-39,-37,5,-40,-59,48,1,-47,-9, -29,-4,-45,2,-62,-50,14,-2,7,-58,15,-12,-18,25,4,-15,-53,-22,36,-44,9,-26,20,16,57,31,-1,-7,26,-30,-84,59,14,-70,28,-5,-43,7,-10,-6,-13,-8,-62,23,-32,-44,-29,-31,-74,-46,23,-32,8,-31,-17,-33,-57,4,-17,-90,-5,-69,6,-37, 
  /* [35][1][][] */ 13,23,-69,-32,-56,-35,-61,3,8,-67,-18,13,-29,-55,-46,-29,-57,28,28,-27,0,-21,-29,25,24,12,-14,23,-13,7,-24,54,-23,-15,22,-13,-59,-4,12,-31,-49,-10,-26,-13,0,-51,34,8,38,-37,16,-4,39,4,19,-40,3,7,26,-43,53,-46,-19,-4, -8,-50,63,11,-31,-40,-112,1,33,-17,10,-32,21,31,-42,-51,-3,6,-11,-31,-18,-9,49,30,16,38,3,-54,-66,-13,-47,68,-10,-70,-23,-44,3,-18,-18,-17,-52,-64,-2,-30,-58,13,-24,19,0,-16,33,-8,-10,3,-30,22,-41,-72,23,10,1,-2,-43,63, 11,11,-25,48,-18,-20,-10,-5,34,-23,26,-23,49,-30,-86,-53,4,-55,-20,24,42,39,50,34,7,-2,-11,0,19,-34,-69,41,-31,-15,15,24,11,56,-18,-10,-15,-62,-31,-18,-53,39,-37,-14,-20,-51,17,-13,-39,-27,10,18,39,-94,67,-61,37,-25,14,48, 
  /* [35][2][][] */ 42,-4,65,-35,-6,-33,16,42,13,45,-6,15,82,-66,-68,1,7,14,57,60,40,-50,5,-22,-38,17,-19,-13,-8,-12,44,26,29,-8,-49,1,-14,3,30,-59,-9,-21,33,31,18,-35,14,-41,3,-1,-68,54,18,-4,-73,-52,23,-47,42,-14,35,-17,-38,67, 19,-1,-39,14,-25,-12,-89,56,6,4,-40,39,82,-27,-23,8,-1,6,51,-2,56,-20,-13,-14,-89,30,-17,-42,-40,-47,-17,47,24,-46,-89,20,18,63,68,3,-12,1,52,-51,26,20,12,-93,-5,11,-49,-33,24,-63,-41,-14,5,7,-15,-53,75,-5,28,98, 55,-23,18,118,31,-55,44,42,9,-38,15,46,95,47,2,-62,59,-8,75,28,87,-19,-36,77,6,52,-57,5,0,-18,-6,84,2,0,-107,-5,43,109,31,-56,38,57,72,-12,2,16,-33,-86,63,-66,-27,-20,55,-74,-41,26,44,-60,17,-22,55,22,-44,127, 
  /* [36][0][][] */ -41,-36,-14,49,-11,44,50,-23,13,23,51,-9,-46,-10,11,10,56,-47,3,10,-25,1,-13,-49,-127,-26,-22,-54,-23,-51,-46,63,-38,0,49,10,-47,19,-7,-64,29,-17,-34,12,-32,36,-21,-12,-33,0,24,-26,13,-24,-54,45,-6,-35,41,42,-52,-47,-9,3, -9,-24,-83,54,1,2,34,-32,-24,13,15,-4,0,8,-57,12,19,2,4,7,18,-46,18,46,3,-76,-32,42,-75,-15,-45,8,22,-53,17,4,-69,65,-61,-70,36,40,39,-37,-88,-18,-23,-30,-23,-39,12,-50,-12,-16,-21,-11,-47,2,2,-20,42,-51,-19,3, 40,67,-110,-5,-30,0,20,-17,40,-40,40,-33,45,-14,-54,13,-1,54,-52,10,-38,22,11,38,51,-29,-48,38,-19,-67,-47,58,48,-41,4,-17,15,43,30,50,4,-30,35,71,-1,15,-36,9,7,-44,-9,27,-5,-3,32,23,78,-19,24,-43,-29,-3,30,-35, 
  /* [36][1][][] */ -9,-27,22,21,-35,22,2,51,-10,38,13,65,78,15,-8,29,45,-4,6,-7,-15,27,12,-16,9,55,-55,27,50,-31,-39,-49,19,-38,-5,53,20,43,8,22,18,10,-30,45,13,-28,-27,34,-69,14,-1,6,-16,51,-68,43,-45,-35,-38,-6,-37,-65,5,-54, 15,37,-11,-23,31,16,-1,35,25,24,-26,-29,18,-57,-27,-40,83,-44,-8,-17,-18,34,-11,34,-26,-27,-38,-23,4,38,-6,-40,-12,-21,-33,32,-37,-17,17,-59,35,33,25,1,44,9,30,80,-34,-25,19,25,40,38,-29,-6,-42,-20,-20,46,35,-18,15,10, -29,-1,-37,-9,41,2,-34,55,3,36,19,-26,37,22,24,-35,-80,15,-24,2,-9,-26,39,40,-21,-16,-17,55,13,-15,35,-46,26,-23,-36,-27,2,-32,40,-52,5,34,-19,-31,-28,-23,44,-22,7,25,18,-15,-24,-13,-17,28,14,-31,-60,5,-20,-31,-52,-2, 
  /* [36][2][][] */ -34,-22,16,-32,38,-30,-75,42,45,-21,32,43,33,-37,-37,36,-45,43,28,-67,63,-15,-18,16,-50,10,-44,22,51,23,-7,10,-6,8,6,2,52,-50,40,-38,-18,15,50,12,80,44,8,88,-63,-52,24,-32,32,-14,39,46,21,-13,-26,18,30,44,-31,53, -75,8,-85,18,13,36,97,48,-5,-16,26,36,-45,8,-47,67,84,-6,36,2,-18,27,-45,-80,7,-10,19,-21,14,34,-32,-1,-29,37,58,36,43,-82,61,-84,5,57,-16,-82,-10,35,-15,23,65,21,74,-20,-40,62,5,41,-63,-13,36,44,-66,-49,-60,28, 32,-56,-73,-6,-23,-9,19,-44,37,-25,-16,8,-20,46,26,51,31,2,-37,-43,59,5,-65,-21,15,-90,-12,34,-10,-19,-48,-7,12,9,-1,0,45,54,15,-89,34,-16,29,-43,-49,-17,24,7,83,22,7,8,-65,44,-19,-63,-1,-8,43,-53,-38,-22,26,39, 
  /* [37][0][][] */ -35,38,-26,14,-42,-21,61,69,21,-54,-3,-4,38,34,1,-10,-33,8,-83,74,16,-1,-12,6,-32,-19,-43,28,-24,-15,9,81,58,19,21,-3,33,92,-10,73,-51,-54,29,38,-40,5,44,79,-34,39,87,2,-34,-17,-42,-56,-67,-69,-8,-26,97,12,-11,-84, -26,8,57,-27,22,40,75,25,-1,-33,18,-2,-52,8,-34,34,32,-60,-69,-23,-9,47,-10,-33,-13,24,61,39,-60,14,29,-39,-28,38,-21,-61,-12,107,-13,-78,55,60,69,-53,65,2,-8,-3,-6,-61,51,13,-73,31,5,-33,40,0,-32,15,-22,-38,-9,-40, 32,-67,-15,-18,3,-24,46,-82,-25,18,55,4,61,17,4,30,-39,-13,16,-57,-8,-66,47,-50,6,-62,-46,-79,-15,-55,8,-69,18,-50,-73,27,19,24,-40,-9,29,5,43,-10,26,-36,-17,1,-61,19,4,-39,-14,15,13,-39,29,-55,43,30,-43,-12,-56,46, 
  /* [37][1][][] */ -34,5,81,67,49,61,23,51,-69,57,2,41,-41,80,50,40,12,-31,-26,49,-90,16,4,-16,-40,45,40,59,18,34,20,32,2,-27,3,-58,-16,-54,-34,-59,32,11,75,8,-71,-27,-64,-54,127,46,-41,-30,-10,13,-8,8,-6,-35,38,-88,5,-64,45,3, 36,52,21,16,48,-27,-1,84,1,18,34,-15,-3,83,10,27,23,-51,-56,36,14,64,-29,-14,92,-12,82,70,-8,15,-43,-8,-51,-17,74,-36,-51,-6,0,11,35,56,65,-53,-64,-5,31,58,70,72,9,63,-33,56,0,47,-2,-60,56,-47,2,-18,-44,39, -57,1,-15,48,64,-1,43,-77,-42,-15,-42,-56,-68,-39,-4,-57,-24,-57,-69,36,-95,34,-34,57,39,-42,-46,-10,-36,49,30,-117,-6,-2,60,-30,17,-12,13,-16,7,3,-2,41,23,49,1,21,-19,-9,-23,5,-82,-51,6,23,-6,-69,-24,-98,-29,-77,34,22, 
  /* [37][2][][] */ -13,29,63,17,1,-22,73,77,-27,48,4,43,5,61,-34,46,-3,-61,7,41,-20,51,46,1,-46,-125,-42,-40,-58,72,-41,-48,-28,-10,69,16,-47,-11,0,4,55,25,26,16,-2,18,26,80,69,-29,70,-28,-54,-43,-38,-5,24,7,-58,-18,21,11,47,-58, -41,-9,-5,36,-46,9,-40,16,30,-8,0,2,-56,38,-23,18,10,-28,-1,-52,-38,-60,-69,48,-55,-11,53,73,29,17,-40,30,-6,-7,4,25,-62,-7,-20,-44,94,81,38,-50,1,58,73,19,58,0,-31,-1,13,13,-6,-66,4,23,32,-56,-67,15,51,-19, -51,-31,-28,-13,7,-16,74,18,37,34,57,41,-30,63,42,-37,-2,-10,-24,-19,-69,-38,-4,-19,-84,-10,-32,-1,-22,43,31,-59,-16,-65,-17,-68,44,0,-29,-16,49,-66,-15,-52,-25,-26,-50,23,-38,55,6,-72,-76,47,-18,-60,-61,-69,26,-36,-5,-59,-33,-51, 
  /* [38][0][][] */ 22,-42,86,-52,-2,8,-64,14,29,21,37,27,-49,79,38,29,8,-56,36,0,43,1,45,52,79,-7,4,-8,87,-57,-49,21,-10,-63,42,60,-24,-67,-8,72,3,-48,-40,-50,-26,43,-1,14,-9,18,22,62,7,-27,28,44,-46,67,-33,30,111,3,-5,-25, 0,-46,25,-22,-7,-48,-35,-2,42,-43,-45,34,-5,-15,12,9,-46,63,-28,-8,-11,-10,-57,-49,-83,58,-2,-9,-44,-24,-50,7,-52,-16,-94,45,-72,-60,53,21,-45,-17,19,8,2,-51,-71,4,-15,38,-28,-127,25,22,49,101,-61,-33,-32,68,-94,-38,-46,-19, -16,-78,29,81,16,66,-39,-75,-55,-20,-48,38,-57,-53,36,-14,21,35,1,19,-35,13,-37,-85,3,-20,63,-11,21,4,-33,-11,47,57,-34,0,-24,-94,-19,-78,54,-93,-87,-23,-29,29,3,41,-24,45,-88,-97,-102,16,-39,-39,-64,61,-53,79,-28,-43,-38,13, 
  /* [38][1][][] */ 50,34,41,-27,-4,-25,80,-28,42,-28,8,-51,11,70,52,81,-1,48,-9,34,-26,-37,56,-20,-88,-17,36,21,-19,-43,20,24,-1,-43,-43,0,-40,-14,-25,2,22,43,-7,-42,-12,-25,9,-13,22,-18,-46,57,-30,27,42,-34,38,47,-8,4,21,-16,15,-4, -60,-15,-7,-22,31,-78,-42,-73,-68,-37,25,3,24,-9,6,-32,5,67,-39,-39,20,-6,-16,1,27,-54,-54,21,-60,-14,10,52,-49,13,-18,-18,-19,-32,-21,35,-6,-33,-27,-12,67,54,-19,-18,-96,-74,-54,-5,13,42,60,-19,-36,-36,-24,-4,56,5,12,-50, -27,-9,-12,49,-62,-8,-77,-97,-14,-30,10,-24,-31,-87,-34,-7,-11,22,-38,-9,50,-32,38,25,-57,-90,16,50,2,64,-16,25,40,-85,41,-93,-60,36,-40,-52,8,-28,41,-27,-20,-44,-22,22,-29,-54,-45,-71,-49,41,-7,-28,-8,46,-64,-12,-65,6,16,-93, 
  /* [38][2][][] */ 6,48,-70,61,94,-3,63,58,50,-10,27,-75,12,-2,-10,95,-22,-27,-4,-51,-29,-7,53,35,-17,-50,-8,27,3,14,-64,82,29,-8,-34,46,-11,61,45,5,41,55,-27,43,-66,25,-23,-1,61,-26,-16,46,-14,63,18,24,54,26,-16,19,74,9,55,-4, -15,67,-52,10,-10,-3,-52,7,45,30,4,2,21,-32,-72,65,13,48,4,-23,2,54,-21,34,65,22,4,59,-71,-38,7,-2,53,-42,-36,-80,-30,-49,-78,-36,21,-71,19,33,-43,36,15,17,8,-8,-1,9,-50,72,45,10,18,-38,-65,-11,-51,70,15,-9, 70,-12,-9,79,-57,22,-30,-15,9,44,47,25,15,13,3,11,-93,67,-7,-2,-74,-33,8,-24,-21,-53,14,53,9,6,-18,67,1,-5,-6,62,-46,-9,3,-30,34,-41,12,88,-52,-34,-24,-8,66,29,26,0,-18,4,-32,10,67,54,-7,-4,35,58,37,-20, 
  /* [39][0][][] */ -35,71,34,-8,26,32,118,16,18,7,-12,-18,-5,1,-19,-35,-24,32,-12,-17,-47,12,-42,61,-5,22,6,-15,18,-13,-22,26,7,38,71,-28,-15,39,0,-5,1,4,6,59,-20,25,-20,-2,-49,-1,35,-44,-6,-24,-46,-43,-21,-51,-24,46,127,11,27,8, -13,31,-15,7,-27,23,8,-2,-51,-5,16,23,-4,-2,-9,10,8,7,-8,-35,-29,18,12,-10,-33,46,3,6,-11,41,-11,-4,-36,28,9,-15,-14,27,-14,5,-6,-6,27,9,36,-16,13,-20,-58,-15,-15,11,23,-52,-2,2,13,7,-47,12,-51,-6,-24,-22, 37,-11,-34,24,11,-44,-22,-13,16,-4,35,6,2,0,-27,38,-27,29,1,-14,-27,-31,89,-23,83,74,-54,-2,-45,21,-53,39,-20,3,-19,2,24,-51,-31,29,8,18,-12,41,-60,23,-7,-46,-4,-36,-73,10,1,30,12,-11,15,-20,-15,59,-27,3,-67,46, 
  /* [39][1][][] */ 5,21,-59,-36,-3,-7,63,40,-14,-24,6,-1,8,42,-2,27,-19,6,12,26,-1,-7,72,17,35,6,-36,39,27,52,-28,52,25,-20,38,41,-11,15,3,36,-36,23,20,30,42,-20,-25,-40,4,-28,4,7,6,-10,-19,-33,-29,-29,-75,-9,126,8,-37,10, 20,-15,-25,-62,1,33,-66,-33,-55,-31,0,-33,-5,-34,21,15,-34,1,-52,9,-25,-16,19,5,2,46,0,-22,27,-8,-27,-5,-25,-15,-47,35,-9,-62,26,-37,-38,30,13,-62,34,-33,-1,-46,-50,-56,1,-16,-9,-33,9,-40,-69,19,-21,5,-14,-51,-27,-24, -40,-28,-53,14,-4,-54,-4,35,5,-54,-9,-67,-77,13,9,-16,42,-40,14,-10,-11,-1,-10,-32,15,20,-70,20,1,29,4,33,-41,-52,-38,27,13,-54,-24,-29,14,-38,-42,-37,-60,-32,-41,69,25,8,-16,-28,-6,-45,-1,62,-42,-47,-53,62,-17,-29,-45,9, 
  /* [39][2][][] */ 33,-43,65,-7,39,-17,94,18,12,22,-26,53,50,12,2,-30,51,7,76,1,18,-44,-6,32,-78,1,44,39,-21,-32,-16,68,-28,-3,-5,79,2,-31,50,-12,-12,68,-20,45,51,-9,27,85,58,47,-53,2,-7,4,10,32,-18,33,15,-31,63,-34,-11,-8, 13,11,-15,-59,-33,27,-14,51,-8,0,-6,-38,10,47,0,-3,36,-12,36,-53,51,-3,28,-8,-34,-36,40,4,-38,-34,33,36,34,16,-8,53,31,15,16,23,-1,11,2,-17,-10,19,-2,-26,-50,-32,2,15,44,12,0,17,-26,-20,-44,-7,-10,-57,-65,-16, -63,-31,-1,55,4,-1,16,-28,51,-31,-16,-4,-61,37,-41,34,17,-53,-47,-21,34,60,1,-28,-4,21,-69,-24,6,-10,-24,-36,2,20,16,19,-62,-6,-57,27,16,-21,-76,-65,-31,-10,-51,-15,-9,36,69,32,-25,16,19,53,-52,-17,15,13,-37,-19,-15,20, 
  /* [40][0][][] */ 40,46,42,48,5,34,37,16,-53,-56,20,47,17,43,55,65,11,-70,4,24,-48,56,-38,14,-23,-36,-60,75,-60,-12,-76,5,26,6,-58,-36,17,-7,25,-64,6,-26,-39,36,0,-24,-67,-26,-13,5,-41,6,-29,68,14,24,32,-3,-3,17,23,1,-25,-41, 7,18,48,0,14,3,-3,-16,-7,-54,16,-30,32,-70,6,-73,-48,-60,-69,-67,-55,47,-84,-46,-45,11,-38,30,-90,2,-66,-17,-26,11,-6,-28,27,-23,20,-31,-51,-40,-62,-48,-95,-15,-65,-87,-85,-57,-33,-16,24,-35,-57,-16,2,-29,16,-43,-52,-8,22,-27, 65,47,-27,52,-21,-54,52,49,-2,40,30,2,-31,28,-4,-2,-80,-35,5,50,-66,-18,22,-20,-74,-20,18,42,-38,-9,27,3,-28,-57,26,-81,-7,26,13,-21,51,-57,26,15,-39,-37,-42,-71,53,38,6,40,-17,-1,5,6,40,-56,-9,-51,-61,-39,-4,-41, 
